<?xml version="1.0"?>
<opencv_storage>
<cascade>
  <stageType>BOOST</stageType>
  <featureType>HAAR</featureType>
  <height>24</height>
  <width>24</width>
  <stageParams>
    <boostType>GAB</boostType>
    <minHitRate>9.9900001287460327e-01</minHitRate>
    <maxFalseAlarm>2.0000000298023224e-01</maxFalseAlarm>
    <weightTrimRate>9.4999999999999996e-01</weightTrimRate>
    <maxDepth>1</maxDepth>
    <maxWeakCount>100</maxWeakCount></stageParams>
  <featureParams>
    <maxCatCount>0</maxCatCount>
    <featSize>1</featSize>
    <mode>BASIC</mode></featureParams>
  <stageNum>7</stageNum>
  <stages>
    <!-- stage 0 -->
    <_>
      <maxWeakCount>3</maxWeakCount>
      <stageThreshold>-9.5387858152389526e-01</stageThreshold>
      <weakClassifiers>
        <_>
          <internalNodes>
            0 -1 24 -3.5668019205331802e-02</internalNodes>
          <leafValues>
            9.1844660043716431e-01 -9.8248177766799927e-01</leafValues></_>
        <_>
          <internalNodes>
            0 -1 31 2.2836476564407349e-02</internalNodes>
          <leafValues>
            -9.1379445791244507e-01 9.5239371061325073e-01</leafValues></_>
        <_>
          <internalNodes>
            0 -1 8 -3.0707190744578838e-03</internalNodes>
          <leafValues>
            9.4239765405654907e-01 -8.6209344863891602e-01</leafValues></_></weakClassifiers></_>
    <!-- stage 1 -->
    <_>
      <maxWeakCount>5</maxWeakCount>
      <stageThreshold>-6.6198205947875977e-01</stageThreshold>
      <weakClassifiers>
        <_>
          <internalNodes>
            0 -1 25 -6.3271597027778625e-02</internalNodes>
          <leafValues>
            9.2083334922790527e-01 -8.9166665077209473e-01</leafValues></_>
        <_>
          <internalNodes>
            0 -1 13 -3.5265551414340734e-03</internalNodes>
          <leafValues>
            8.6637157201766968e-01 -7.2769474983215332e-01</leafValues></_>
        <_>
          <internalNodes>
            0 -1 3 -3.2493323087692261e-03</internalNodes>
          <leafValues>
            9.1355824470520020e-01 -6.9771039485931396e-01</leafValues></_>
        <_>
          <internalNodes>
            0 -1 33 -1.8103906884789467e-02</internalNodes>
          <leafValues>
            8.2139563560485840e-01 -7.9862898588180542e-01</leafValues></_>
        <_>
          <internalNodes>
            0 -1 40 1.0166007094085217e-02</internalNodes>
          <leafValues>
            -6.9831049442291260e-01 8.5965245962142944e-01</leafValues></_></weakClassifiers></_>
    <!-- stage 2 -->
    <_>
      <maxWeakCount>6</maxWeakCount>
      <stageThreshold>-1.2307459115982056e+00</stageThreshold>
      <weakClassifiers>
        <_>
          <internalNodes>
            0 -1 29 7.2895623743534088e-03</internalNodes>
          <leafValues>
            -8.2913166284561157e-01 8.0658435821533203e-01</leafValues></_>
        <_>
          <internalNodes>
            0 -1 9 -4.4603813439607620e-03</internalNodes>
          <leafValues>
            9.0759515762329102e-01 -6.7061209678649902e-01</leafValues></_>
        <_>
          <internalNodes>
            0 -1 6 2.3063053376972675e-03</internalNodes>
          <leafValues>
            -7.2852462530136108e-01 8.0900865793228149e-01</leafValues></_>
        <_>
          <internalNodes>
            0 -1 44 -1.3226350769400597e-02</internalNodes>
          <leafValues>
            9.2954194545745850e-01 -6.3026648759841919e-01</leafValues></_>
        <_>
          <internalNodes>
            0 -1 19 -8.2600507885217667e-03</internalNodes>
          <leafValues>
            7.5371682643890381e-01 -6.1412370204925537e-01</leafValues></_>
        <_>
          <internalNodes>
            0 -1 11 3.5273972898721695e-03</internalNodes>
          <leafValues>
            -6.9648629426956177e-01 7.0437932014465332e-01</leafValues></_></weakClassifiers></_>
    <!-- stage 3 -->
    <_>
      <maxWeakCount>7</maxWeakCount>
      <stageThreshold>-1.1680855751037598e+00</stageThreshold>
      <weakClassifiers>
        <_>
          <internalNodes>
            0 -1 17 -1.6693778336048126e-02</internalNodes>
          <leafValues>
            6.1752986907958984e-01 -7.3065900802612305e-01</leafValues></_>
        <_>
          <internalNodes>
            0 -1 21 9.7678832709789276e-02</internalNodes>
          <leafValues>
            -7.7138239145278931e-01 6.7069774866104126e-01</leafValues></_>
        <_>
          <internalNodes>
            0 -1 41 -1.1220047250390053e-02</internalNodes>
          <leafValues>
            5.9417831897735596e-01 -7.0185977220535278e-01</leafValues></_>
        <_>
          <internalNodes>
            0 -1 45 -3.7622707895934582e-03</internalNodes>
          <leafValues>
            4.2337965965270996e-01 -8.3674579858779907e-01</leafValues></_>
        <_>
          <internalNodes>
            0 -1 4 -9.1951675713062286e-03</internalNodes>
          <leafValues>
            5.8194082975387573e-01 -6.7706656455993652e-01</leafValues></_>
        <_>
          <internalNodes>
            0 -1 39 2.6198107749223709e-02</internalNodes>
          <leafValues>
            -4.9131578207015991e-01 7.4394333362579346e-01</leafValues></_>
        <_>
          <internalNodes>
            0 -1 34 -2.6551214978098869e-03</internalNodes>
          <leafValues>
            5.2181088924407959e-01 -7.0439183712005615e-01</leafValues></_></weakClassifiers></_>
    <!-- stage 4 -->
    <_>
      <maxWeakCount>8</maxWeakCount>
      <stageThreshold>-9.1696733236312866e-01</stageThreshold>
      <weakClassifiers>
        <_>
          <internalNodes>
            0 -1 0 -5.6609358638525009e-02</internalNodes>
          <leafValues>
            5.5702477693557739e-01 -9.0252101421356201e-01</leafValues></_>
        <_>
          <internalNodes>
            0 -1 2 1.7376601696014404e-01</internalNodes>
          <leafValues>
            -6.8229174613952637e-01 4.9434360861778259e-01</leafValues></_>
        <_>
          <internalNodes>
            0 -1 10 -3.6073029041290283e-03</internalNodes>
          <leafValues>
            6.6782850027084351e-01 -5.2576035261154175e-01</leafValues></_>
        <_>
          <internalNodes>
            0 -1 32 -1.9275836646556854e-02</internalNodes>
          <leafValues>
            7.1408915519714355e-01 -4.3848961591720581e-01</leafValues></_>
        <_>
          <internalNodes>
            0 -1 16 5.3944704122841358e-03</internalNodes>
          <leafValues>
            -8.1506937742233276e-01 4.4330930709838867e-01</leafValues></_>
        <_>
          <internalNodes>
            0 -1 47 -5.6732445955276489e-03</internalNodes>
          <leafValues>
            3.8110172748565674e-01 -8.2146322727203369e-01</leafValues></_>
        <_>
          <internalNodes>
            0 -1 1 -1.4587132260203362e-02</internalNodes>
          <leafValues>
            2.9567566514015198e-01 -8.5143435001373291e-01</leafValues></_>
        <_>
          <internalNodes>
            0 -1 7 5.2335769869387150e-03</internalNodes>
          <leafValues>
            -5.8324062824249268e-01 5.9375202655792236e-01</leafValues></_></weakClassifiers></_>
    <!-- stage 5 -->
    <_>
      <maxWeakCount>9</maxWeakCount>
      <stageThreshold>-9.4138073921203613e-01</stageThreshold>
      <weakClassifiers>
        <_>
          <internalNodes>
            0 -1 23 1.6377132385969162e-02</internalNodes>
          <leafValues>
            -8.6220473051071167e-01 3.4393063187599182e-01</leafValues></_>
        <_>
          <internalNodes>
            0 -1 18 -1.3641575351357460e-02</internalNodes>
          <leafValues>
            3.4988066554069519e-01 -7.5927990674972534e-01</leafValues></_>
        <_>
          <internalNodes>
            0 -1 42 1.2082840315997601e-02</internalNodes>
          <leafValues>
            -4.5418184995651245e-01 7.0691132545471191e-01</leafValues></_>
        <_>
          <internalNodes>
            0 -1 5 1.7972171306610107e-02</internalNodes>
          <leafValues>
            -5.3998225927352905e-01 5.9253275394439697e-01</leafValues></_>
        <_>
          <internalNodes>
            0 -1 20 8.6583361029624939e-02</internalNodes>
          <leafValues>
            -5.7637989521026611e-01 4.9860295653343201e-01</leafValues></_>
        <_>
          <internalNodes>
            0 -1 15 -1.2700268998742104e-03</internalNodes>
          <leafValues>
            -9.6615874767303467e-01 2.2553411126136780e-01</leafValues></_>
        <_>
          <internalNodes>
            0 -1 43 3.0448113102465868e-03</internalNodes>
          <leafValues>
            -7.6541376113891602e-01 3.2207444310188293e-01</leafValues></_>
        <_>
          <internalNodes>
            0 -1 26 -5.2356568630784750e-04</internalNodes>
          <leafValues>
            -8.4720498323440552e-01 2.5073468685150146e-01</leafValues></_>
        <_>
          <internalNodes>
            0 -1 30 4.7360698226839304e-04</internalNodes>
          <leafValues>
            3.5564947128295898e-01 -7.6345503330230713e-01</leafValues></_></weakClassifiers></_>
    <!-- stage 6 -->
    <_>
      <maxWeakCount>11</maxWeakCount>
      <stageThreshold>-1.1180264949798584e+00</stageThreshold>
      <weakClassifiers>
        <_>
          <internalNodes>
            0 -1 14 -4.3272804468870163e-03</internalNodes>
          <leafValues>
            5.5862069129943848e-01 -5.7908499240875244e-01</leafValues></_>
        <_>
          <internalNodes>
            0 -1 22 5.5926263332366943e-02</internalNodes>
          <leafValues>
            -8.6666393280029297e-01 3.7051865458488464e-01</leafValues></_>
        <_>
          <internalNodes>
            0 -1 27 1.4470203313976526e-04</internalNodes>
          <leafValues>
            -9.0866827964782715e-01 2.5059831142425537e-01</leafValues></_>
        <_>
          <internalNodes>
            0 -1 38 5.5054064840078354e-02</internalNodes>
          <leafValues>
            -4.2872604727745056e-01 7.0276194810867310e-01</leafValues></_>
        <_>
          <internalNodes>
            0 -1 36 2.4457843974232674e-02</internalNodes>
          <leafValues>
            -3.3942255377769470e-01 8.1049478054046631e-01</leafValues></_>
        <_>
          <internalNodes>
            0 -1 12 6.0920134274056181e-05</internalNodes>
          <leafValues>
            -6.1237788200378418e-01 4.6763193607330322e-01</leafValues></_>
        <_>
          <internalNodes>
            0 -1 28 -4.4432359572965652e-05</internalNodes>
          <leafValues>
            3.5029381513595581e-01 -7.6981568336486816e-01</leafValues></_>
        <_>
          <internalNodes>
            0 -1 48 -8.8380435481667519e-03</internalNodes>
          <leafValues>
            7.9467302560806274e-01 -3.8017714023590088e-01</leafValues></_>
        <_>
          <internalNodes>
            0 -1 37 2.0658292341977358e-03</internalNodes>
          <leafValues>
            -7.5338822603225708e-01 3.7860956788063049e-01</leafValues></_>
        <_>
          <internalNodes>
            0 -1 35 -2.7919214218854904e-02</internalNodes>
          <leafValues>
            7.4204164743423462e-01 -3.9671379327774048e-01</leafValues></_>
        <_>
          <internalNodes>
            0 -1 46 -2.0978674292564392e-03</internalNodes>
          <leafValues>
            3.8906288146972656e-01 -6.7750513553619385e-01</leafValues></_></weakClassifiers></_></stages>
  <features>
    <_>
      <rects>
        <_>
          0 17 17 6 -1.</_>
        <_>
          0 19 17 2 3.</_></rects>
      <tilted>0</tilted></_>
    <_>
      <rects>
        <_>
          0 20 24 1 -1.</_>
        <_>
          8 20 8 1 3.</_></rects>
      <tilted>0</tilted></_>
    <_>
      <rects>
        <_>
          1 3 19 18 -1.</_>
        <_>
          1 9 19 6 3.</_></rects>
      <tilted>0</tilted></_>
    <_>
      <rects>
        <_>
          2 11 3 3 -1.</_>
        <_>
          3 11 1 3 3.</_></rects>
      <tilted>0</tilted></_>
    <_>
      <rects>
        <_>
          2 15 6 3 -1.</_>
        <_>
          4 15 2 3 3.</_></rects>
      <tilted>0</tilted></_>
    <_>
      <rects>
        <_>
          3 6 6 9 -1.</_>
        <_>
          5 6 2 9 3.</_></rects>
      <tilted>0</tilted></_>
    <_>
      <rects>
        <_>
          3 10 3 3 -1.</_>
        <_>
          4 10 1 3 3.</_></rects>
      <tilted>0</tilted></_>
    <_>
      <rects>
        <_>
          3 10 2 4 -1.</_>
        <_>
          4 10 1 4 2.</_></rects>
      <tilted>0</tilted></_>
    <_>
      <rects>
        <_>
          3 12 2 6 -1.</_>
        <_>
          3 12 1 3 2.</_>
        <_>
          4 15 1 3 2.</_></rects>
      <tilted>0</tilted></_>
    <_>
      <rects>
        <_>
          3 14 3 3 -1.</_>
        <_>
          4 14 1 3 3.</_></rects>
      <tilted>0</tilted></_>
    <_>
      <rects>
        <_>
          3 15 3 1 -1.</_>
        <_>
          4 15 1 1 3.</_></rects>
      <tilted>0</tilted></_>
    <_>
      <rects>
        <_>
          4 4 3 12 -1.</_>
        <_>
          5 4 1 12 3.</_></rects>
      <tilted>0</tilted></_>
    <_>
      <rects>
        <_>
          4 13 2 2 -1.</_>
        <_>
          4 13 1 1 2.</_>
        <_>
          5 14 1 1 2.</_></rects>
      <tilted>0</tilted></_>
    <_>
      <rects>
        <_>
          4 14 2 6 -1.</_>
        <_>
          4 14 1 3 2.</_>
        <_>
          5 17 1 3 2.</_></rects>
      <tilted>0</tilted></_>
    <_>
      <rects>
        <_>
          4 16 3 2 -1.</_>
        <_>
          5 16 1 2 3.</_></rects>
      <tilted>0</tilted></_>
    <_>
      <rects>
        <_>
          4 18 2 3 -1.</_>
        <_>
          4 19 2 1 3.</_></rects>
      <tilted>0</tilted></_>
    <_>
      <rects>
        <_>
          5 9 4 10 -1.</_>
        <_>
          5 9 2 5 2.</_>
        <_>
          7 14 2 5 2.</_></rects>
      <tilted>0</tilted></_>
    <_>
      <rects>
        <_>
          5 17 6 4 -1.</_>
        <_>
          5 17 3 2 2.</_>
        <_>
          8 19 3 2 2.</_></rects>
      <tilted>0</tilted></_>
    <_>
      <rects>
        <_>
          6 16 3 6 -1.</_>
        <_>
          6 18 3 2 3.</_></rects>
      <tilted>0</tilted></_>
    <_>
      <rects>
        <_>
          6 18 6 4 -1.</_>
        <_>
          6 18 3 2 2.</_>
        <_>
          9 20 3 2 2.</_></rects>
      <tilted>0</tilted></_>
    <_>
      <rects>
        <_>
          7 0 10 16 -1.</_>
        <_>
          7 8 10 8 2.</_></rects>
      <tilted>0</tilted></_>
    <_>
      <rects>
        <_>
          7 1 11 16 -1.</_>
        <_>
          7 9 11 8 2.</_></rects>
      <tilted>0</tilted></_>
    <_>
      <rects>
        <_>
          7 12 11 9 -1.</_>
        <_>
          7 15 11 3 3.</_></rects>
      <tilted>0</tilted></_>
    <_>
      <rects>
        <_>
          7 16 12 4 -1.</_>
        <_>
          11 16 4 4 3.</_></rects>
      <tilted>0</tilted></_>
    <_>
      <rects>
        <_>
          7 17 9 6 -1.</_>
        <_>
          7 19 9 2 3.</_></rects>
      <tilted>0</tilted></_>
    <_>
      <rects>
        <_>
          7 17 10 6 -1.</_>
        <_>
          7 19 10 2 3.</_></rects>
      <tilted>0</tilted></_>
    <_>
      <rects>
        <_>
          8 12 2 4 -1.</_>
        <_>
          8 14 2 2 2.</_></rects>
      <tilted>0</tilted></_>
    <_>
      <rects>
        <_>
          8 17 2 3 -1.</_>
        <_>
          9 17 1 3 2.</_></rects>
      <tilted>0</tilted></_>
    <_>
      <rects>
        <_>
          8 20 2 1 -1.</_>
        <_>
          9 20 1 1 2.</_></rects>
      <tilted>0</tilted></_>
    <_>
      <rects>
        <_>
          8 20 9 3 -1.</_>
        <_>
          8 21 9 1 3.</_></rects>
      <tilted>0</tilted></_>
    <_>
      <rects>
        <_>
          9 12 1 4 -1.</_>
        <_>
          9 14 1 2 2.</_></rects>
      <tilted>0</tilted></_>
    <_>
      <rects>
        <_>
          9 17 14 4 -1.</_>
        <_>
          9 17 7 2 2.</_>
        <_>
          16 19 7 2 2.</_></rects>
      <tilted>0</tilted></_>
    <_>
      <rects>
        <_>
          10 19 4 3 -1.</_>
        <_>
          10 20 4 1 3.</_></rects>
      <tilted>0</tilted></_>
    <_>
      <rects>
        <_>
          11 17 5 4 -1.</_>
        <_>
          11 19 5 2 2.</_></rects>
      <tilted>0</tilted></_>
    <_>
      <rects>
        <_>
          11 19 2 3 -1.</_>
        <_>
          11 20 2 1 3.</_></rects>
      <tilted>0</tilted></_>
    <_>
      <rects>
        <_>
          12 3 9 5 -1.</_>
        <_>
          15 3 3 5 3.</_></rects>
      <tilted>0</tilted></_>
    <_>
      <rects>
        <_>
          12 4 6 13 -1.</_>
        <_>
          14 4 2 13 3.</_></rects>
      <tilted>0</tilted></_>
    <_>
      <rects>
        <_>
          12 20 9 2 -1.</_>
        <_>
          12 21 9 1 2.</_></rects>
      <tilted>0</tilted></_>
    <_>
      <rects>
        <_>
          14 2 9 13 -1.</_>
        <_>
          17 2 3 13 3.</_></rects>
      <tilted>0</tilted></_>
    <_>
      <rects>
        <_>
          15 0 6 17 -1.</_>
        <_>
          17 0 2 17 3.</_></rects>
      <tilted>0</tilted></_>
    <_>
      <rects>
        <_>
          16 7 6 7 -1.</_>
        <_>
          18 7 2 7 3.</_></rects>
      <tilted>0</tilted></_>
    <_>
      <rects>
        <_>
          16 8 4 10 -1.</_>
        <_>
          16 8 2 5 2.</_>
        <_>
          18 13 2 5 2.</_></rects>
      <tilted>0</tilted></_>
    <_>
      <rects>
        <_>
          16 16 4 4 -1.</_>
        <_>
          16 16 2 2 2.</_>
        <_>
          18 18 2 2 2.</_></rects>
      <tilted>0</tilted></_>
    <_>
      <rects>
        <_>
          17 10 2 9 -1.</_>
        <_>
          17 13 2 3 3.</_></rects>
      <tilted>0</tilted></_>
    <_>
      <rects>
        <_>
          17 13 6 4 -1.</_>
        <_>
          19 13 2 4 3.</_></rects>
      <tilted>0</tilted></_>
    <_>
      <rects>
        <_>
          17 14 1 9 -1.</_>
        <_>
          17 17 1 3 3.</_></rects>
      <tilted>0</tilted></_>
    <_>
      <rects>
        <_>
          18 8 2 10 -1.</_>
        <_>
          18 8 1 5 2.</_>
        <_>
          19 13 1 5 2.</_></rects>
      <tilted>0</tilted></_>
    <_>
      <rects>
        <_>
          19 8 1 12 -1.</_>
        <_>
          19 14 1 6 2.</_></rects>
      <tilted>0</tilted></_>
    <_>
      <rects>
        <_>
          19 10 3 5 -1.</_>
        <_>
          20 10 1 5 3.</_></rects>
      <tilted>0</tilted></_></features></cascade>
</opencv_storage>
