<?xml version="1.0"?>
<opencv_storage>
<stage2>
  <maxWeakCount>7</maxWeakCount>
  <stageThreshold>-1.3454346656799316e+00</stageThreshold>
  <weakClassifiers>
    <_>
      <internalNodes>
        0 -1 32624 2.9138606041669846e-02</internalNodes>
      <leafValues>
        -8.7535411119461060e-01 8.4615385532379150e-01</leafValues></_>
    <_>
      <internalNodes>
        0 -1 153587 6.3174059614539146e-03</internalNodes>
      <leafValues>
        -7.2869580984115601e-01 6.8232536315917969e-01</leafValues></_>
    <_>
      <internalNodes>
        0 -1 58885 -3.3128284849226475e-03</internalNodes>
      <leafValues>
        6.8820089101791382e-01 -5.9600633382797241e-01</leafValues></_>
    <_>
      <internalNodes>
        0 -1 48727 -2.7567479759454727e-02</internalNodes>
      <leafValues>
        3.9874672889709473e-01 -9.7904884815216064e-01</leafValues></_>
    <_>
      <internalNodes>
        0 -1 45559 5.1658316515386105e-03</internalNodes>
      <leafValues>
        -6.0008794069290161e-01 6.2421226501464844e-01</leafValues></_>
    <_>
      <internalNodes>
        0 -1 37062 1.8539279699325562e-03</internalNodes>
      <leafValues>
        -7.0374530553817749e-01 5.2231329679489136e-01</leafValues></_>
    <_>
      <internalNodes>
        0 -1 150355 1.8233131617307663e-02</internalNodes>
      <leafValues>
        -7.2982513904571533e-01 5.3364950418472290e-01</leafValues></_></weakClassifiers></stage2>
</opencv_storage>
