<?xml version="1.0"?>
<opencv_storage>
<stage4>
  <maxWeakCount>9</maxWeakCount>
  <stageThreshold>-8.9532804489135742e-01</stageThreshold>
  <weakClassifiers>
    <_>
      <internalNodes>
        0 -1 52839 1.9016716629266739e-02</internalNodes>
      <leafValues>
        -7.6875001192092896e-01 5.2142858505249023e-01</leafValues></_>
    <_>
      <internalNodes>
        0 -1 113970 -2.4130791425704956e-02</internalNodes>
      <leafValues>
        5.9802460670471191e-01 -6.6038239002227783e-01</leafValues></_>
    <_>
      <internalNodes>
        0 -1 155630 1.2215528637170792e-02</internalNodes>
      <leafValues>
        -5.0768953561782837e-01 6.6307562589645386e-01</leafValues></_>
    <_>
      <internalNodes>
        0 -1 79636 1.1075572110712528e-03</internalNodes>
      <leafValues>
        -8.1233108043670654e-01 4.0598970651626587e-01</leafValues></_>
    <_>
      <internalNodes>
        0 -1 13623 2.5496156886219978e-02</internalNodes>
      <leafValues>
        -7.0642018318176270e-01 3.5747957229614258e-01</leafValues></_>
    <_>
      <internalNodes>
        0 -1 138868 -1.4467298751696944e-03</internalNodes>
      <leafValues>
        2.5758960843086243e-01 -8.9966541528701782e-01</leafValues></_>
    <_>
      <internalNodes>
        0 -1 70433 2.0979688997613266e-05</internalNodes>
      <leafValues>
        -6.9481748342514038e-01 3.9025241136550903e-01</leafValues></_>
    <_>
      <internalNodes>
        0 -1 155271 -4.9490658566355705e-03</internalNodes>
      <leafValues>
        4.4411033391952515e-01 -6.1086189746856689e-01</leafValues></_>
    <_>
      <internalNodes>
        0 -1 98422 1.4308932004496455e-03</internalNodes>
      <leafValues>
        3.1869778037071228e-01 -8.9355212450027466e-01</leafValues></_></weakClassifiers></stage4>
</opencv_storage>
