<?xml version="1.0"?>
<opencv_storage>
<stage0>
  <maxWeakCount>5</maxWeakCount>
  <stageThreshold>-1.3670445680618286e+00</stageThreshold>
  <weakClassifiers>
    <_>
      <internalNodes>
        0 -1 80079 -4.0929123759269714e-02</internalNodes>
      <leafValues>
        8.2375478744506836e-01 -9.2920351028442383e-01</leafValues></_>
    <_>
      <internalNodes>
        0 -1 57303 1.5151491388678551e-02</internalNodes>
      <leafValues>
        -8.8339376449584961e-01 7.2196298837661743e-01</leafValues></_>
    <_>
      <internalNodes>
        0 -1 155270 2.8233706951141357e-02</internalNodes>
      <leafValues>
        -8.0672967433929443e-01 7.3220705986022949e-01</leafValues></_>
    <_>
      <internalNodes>
        0 -1 58516 1.9260926637798548e-03</internalNodes>
      <leafValues>
        -8.1284576654434204e-01 6.4566028118133545e-01</leafValues></_>
    <_>
      <internalNodes>
        0 -1 119510 -2.3464545607566833e-02</internalNodes>
      <leafValues>
        5.2619135379791260e-01 -9.1092306375503540e-01</leafValues></_></weakClassifiers></stage0>
</opencv_storage>
