<?xml version="1.0"?>
<opencv_storage>
<stage6>
  <maxWeakCount>11</maxWeakCount>
  <stageThreshold>-1.1180264949798584e+00</stageThreshold>
  <weakClassifiers>
    <_>
      <internalNodes>
        0 -1 59207 -4.3272804468870163e-03</internalNodes>
      <leafValues>
        5.5862069129943848e-01 -5.7908499240875244e-01</leafValues></_>
    <_>
      <internalNodes>
        0 -1 87845 5.5926263332366943e-02</internalNodes>
      <leafValues>
        -8.6666393280029297e-01 3.7051865458488464e-01</leafValues></_>
    <_>
      <internalNodes>
        0 -1 97898 1.4470203313976526e-04</internalNodes>
      <leafValues>
        -9.0866827964782715e-01 2.5059831142425537e-01</leafValues></_>
    <_>
      <internalNodes>
        0 -1 134827 5.5054064840078354e-02</internalNodes>
      <leafValues>
        -4.2872604727745056e-01 7.0276194810867310e-01</leafValues></_>
    <_>
      <internalNodes>
        0 -1 123501 2.4457843974232674e-02</internalNodes>
      <leafValues>
        -3.3942255377769470e-01 8.1049478054046631e-01</leafValues></_>
    <_>
      <internalNodes>
        0 -1 58124 6.0920134274056181e-05</internalNodes>
      <leafValues>
        -6.1237788200378418e-01 4.6763193607330322e-01</leafValues></_>
    <_>
      <internalNodes>
        0 -1 98394 -4.4432359572965652e-05</internalNodes>
      <leafValues>
        3.5029381513595581e-01 -7.6981568336486816e-01</leafValues></_>
    <_>
      <internalNodes>
        0 -1 156814 -8.8380435481667519e-03</internalNodes>
      <leafValues>
        7.9467302560806274e-01 -3.8017714023590088e-01</leafValues></_>
    <_>
      <internalNodes>
        0 -1 127920 2.0658292341977358e-03</internalNodes>
      <leafValues>
        -7.5338822603225708e-01 3.7860956788063049e-01</leafValues></_>
    <_>
      <internalNodes>
        0 -1 123070 -2.7919214218854904e-02</internalNodes>
      <leafValues>
        7.4204164743423462e-01 -3.9671379327774048e-01</leafValues></_>
    <_>
      <internalNodes>
        0 -1 153760 -2.0978674292564392e-03</internalNodes>
      <leafValues>
        3.8906288146972656e-01 -6.7750513553619385e-01</leafValues></_></weakClassifiers></stage6>
</opencv_storage>
