<?xml version="1.0"?>
<opencv_storage>
<stage5>
  <maxWeakCount>9</maxWeakCount>
  <stageThreshold>-9.4138073921203613e-01</stageThreshold>
  <weakClassifiers>
    <_>
      <internalNodes>
        0 -1 88897 1.6377132385969162e-02</internalNodes>
      <leafValues>
        -8.6220473051071167e-01 3.4393063187599182e-01</leafValues></_>
    <_>
      <internalNodes>
        0 -1 79686 -1.3641575351357460e-02</internalNodes>
      <leafValues>
        3.4988066554069519e-01 -7.5927990674972534e-01</leafValues></_>
    <_>
      <internalNodes>
        0 -1 147855 1.2082840315997601e-02</internalNodes>
      <leafValues>
        -4.5418184995651245e-01 7.0691132545471191e-01</leafValues></_>
    <_>
      <internalNodes>
        0 -1 43087 1.7972171306610107e-02</internalNodes>
      <leafValues>
        -5.3998225927352905e-01 5.9253275394439697e-01</leafValues></_>
    <_>
      <internalNodes>
        0 -1 81362 8.6583361029624939e-02</internalNodes>
      <leafValues>
        -5.7637989521026611e-01 4.9860295653343201e-01</leafValues></_>
    <_>
      <internalNodes>
        0 -1 59753 -1.2700268998742104e-03</internalNodes>
      <leafValues>
        -9.6615874767303467e-01 2.2553411126136780e-01</leafValues></_>
    <_>
      <internalNodes>
        0 -1 150718 3.0448113102465868e-03</internalNodes>
      <leafValues>
        -7.6541376113891602e-01 3.2207444310188293e-01</leafValues></_>
    <_>
      <internalNodes>
        0 -1 96468 -5.2356568630784750e-04</internalNodes>
      <leafValues>
        -8.4720498323440552e-01 2.5073468685150146e-01</leafValues></_>
    <_>
      <internalNodes>
        0 -1 104748 4.7360698226839304e-04</internalNodes>
      <leafValues>
        3.5564947128295898e-01 -7.6345503330230713e-01</leafValues></_></weakClassifiers></stage5>
</opencv_storage>
