<?xml version="1.0"?>
<opencv_storage>
<stage3>
  <maxWeakCount>7</maxWeakCount>
  <stageThreshold>-9.1522175073623657e-01</stageThreshold>
  <weakClassifiers>
    <_>
      <internalNodes>
        0 -1 43025 1.2103974819183350e-02</internalNodes>
      <leafValues>
        -7.7489179372787476e-01 6.6469430923461914e-01</leafValues></_>
    <_>
      <internalNodes>
        0 -1 133351 2.8794098645448685e-02</internalNodes>
      <leafValues>
        -6.2003755569458008e-01 7.4295419454574585e-01</leafValues></_>
    <_>
      <internalNodes>
        0 -1 156544 -8.6508068488910794e-04</internalNodes>
      <leafValues>
        5.9211027622222900e-01 -6.2316274642944336e-01</leafValues></_>
    <_>
      <internalNodes>
        0 -1 139081 -4.7425209777429700e-04</internalNodes>
      <leafValues>
        -9.6558827161788940e-01 3.1212580204010010e-01</leafValues></_>
    <_>
      <internalNodes>
        0 -1 120968 -3.8923675310797989e-04</internalNodes>
      <leafValues>
        2.8440040349960327e-01 -8.5304576158523560e-01</leafValues></_>
    <_>
      <internalNodes>
        0 -1 41527 1.8818145617842674e-03</internalNodes>
      <leafValues>
        -9.0465587377548218e-01 2.8686875104904175e-01</leafValues></_>
    <_>
      <internalNodes>
        0 -1 142717 -3.8741123862564564e-03</internalNodes>
      <leafValues>
        2.1947540342807770e-01 -9.4977819919586182e-01</leafValues></_></weakClassifiers></stage3>
</opencv_storage>
