<?xml version="1.0"?>
<opencv_storage>
<cascade>
  <stageType>BOOST</stageType>
  <featureType>HAAR</featureType>
  <height>24</height>
  <width>24</width>
  <stageParams>
    <boostType>GAB</boostType>
    <minHitRate>9.9900001287460327e-01</minHitRate>
    <maxFalseAlarm>2.0000000298023224e-01</maxFalseAlarm>
    <weightTrimRate>9.4999999999999996e-01</weightTrimRate>
    <maxDepth>1</maxDepth>
    <maxWeakCount>100</maxWeakCount></stageParams>
  <featureParams>
    <maxCatCount>0</maxCatCount>
    <featSize>1</featSize>
    <mode>BASIC</mode></featureParams>
  <stageNum>7</stageNum>
  <stages>
    <!-- stage 0 -->
    <_>
      <maxWeakCount>4</maxWeakCount>
      <stageThreshold>-1.7601041495800018e-01</stageThreshold>
      <weakClassifiers>
        <_>
          <internalNodes>
            0 -1 26 -2.8853787109255791e-02</internalNodes>
          <leafValues>
            8.1954884529113770e-01 -7.8277152776718140e-01</leafValues></_>
        <_>
          <internalNodes>
            0 -1 1 -2.2054207324981689e-01</internalNodes>
          <leafValues>
            8.5311406850814819e-01 -7.4297904968261719e-01</leafValues></_>
        <_>
          <internalNodes>
            0 -1 18 -8.8255535811185837e-03</internalNodes>
          <leafValues>
            7.1102797985076904e-01 -7.2301149368286133e-01</leafValues></_>
        <_>
          <internalNodes>
            0 -1 24 -7.0044007152318954e-03</internalNodes>
          <leafValues>
            6.3871216773986816e-01 -7.2619134187698364e-01</leafValues></_></weakClassifiers></_>
    <!-- stage 1 -->
    <_>
      <maxWeakCount>7</maxWeakCount>
      <stageThreshold>-9.3513989448547363e-01</stageThreshold>
      <weakClassifiers>
        <_>
          <internalNodes>
            0 -1 9 -1.0746253654360771e-02</internalNodes>
          <leafValues>
            6.1151081323623657e-01 -7.0881223678588867e-01</leafValues></_>
        <_>
          <internalNodes>
            0 -1 37 2.2988092154264450e-02</internalNodes>
          <leafValues>
            -5.6661903858184814e-01 7.5642853975296021e-01</leafValues></_>
        <_>
          <internalNodes>
            0 -1 15 -1.4100767672061920e-02</internalNodes>
          <leafValues>
            5.3994143009185791e-01 -5.9734612703323364e-01</leafValues></_>
        <_>
          <internalNodes>
            0 -1 35 7.9466663300991058e-02</internalNodes>
          <leafValues>
            -5.3432583808898926e-01 6.6565281152725220e-01</leafValues></_>
        <_>
          <internalNodes>
            0 -1 11 6.7438259720802307e-03</internalNodes>
          <leafValues>
            -6.6769558191299438e-01 5.3676843643188477e-01</leafValues></_>
        <_>
          <internalNodes>
            0 -1 28 5.2493222756311297e-04</internalNodes>
          <leafValues>
            3.7295126914978027e-01 -9.0738755464553833e-01</leafValues></_>
        <_>
          <internalNodes>
            0 -1 0 -1.6884312033653259e-01</internalNodes>
          <leafValues>
            6.9858336448669434e-01 -4.9468374252319336e-01</leafValues></_></weakClassifiers></_>
    <!-- stage 2 -->
    <_>
      <maxWeakCount>7</maxWeakCount>
      <stageThreshold>-6.8276876211166382e-01</stageThreshold>
      <weakClassifiers>
        <_>
          <internalNodes>
            0 -1 23 8.4368679672479630e-03</internalNodes>
          <leafValues>
            -7.1653544902801514e-01 5.6164383888244629e-01</leafValues></_>
        <_>
          <internalNodes>
            0 -1 47 -1.5572762116789818e-02</internalNodes>
          <leafValues>
            5.2660709619522095e-01 -5.8400845527648926e-01</leafValues></_>
        <_>
          <internalNodes>
            0 -1 21 -5.5731716565787792e-03</internalNodes>
          <leafValues>
            5.4384917020797729e-01 -5.3792870044708252e-01</leafValues></_>
        <_>
          <internalNodes>
            0 -1 49 1.1962897842749953e-03</internalNodes>
          <leafValues>
            -5.5550563335418701e-01 5.3703570365905762e-01</leafValues></_>
        <_>
          <internalNodes>
            0 -1 2 -7.2435722686350346e-03</internalNodes>
          <leafValues>
            7.7848494052886963e-01 -4.2109897732734680e-01</leafValues></_>
        <_>
          <internalNodes>
            0 -1 33 -1.1050060857087374e-03</internalNodes>
          <leafValues>
            -7.9956382513046265e-01 3.8382512331008911e-01</leafValues></_>
        <_>
          <internalNodes>
            0 -1 36 6.4038783311843872e-02</internalNodes>
          <leafValues>
            -4.4391015172004700e-01 6.7445033788681030e-01</leafValues></_></weakClassifiers></_>
    <!-- stage 3 -->
    <_>
      <maxWeakCount>8</maxWeakCount>
      <stageThreshold>-1.0756489038467407e+00</stageThreshold>
      <weakClassifiers>
        <_>
          <internalNodes>
            0 -1 25 -6.0510355979204178e-03</internalNodes>
          <leafValues>
            3.1282052397727966e-01 -7.8536587953567505e-01</leafValues></_>
        <_>
          <internalNodes>
            0 -1 48 -9.5350565388798714e-03</internalNodes>
          <leafValues>
            4.4413137435913086e-01 -6.0352504253387451e-01</leafValues></_>
        <_>
          <internalNodes>
            0 -1 14 -4.3124398216605186e-03</internalNodes>
          <leafValues>
            5.5974102020263672e-01 -4.5036813616752625e-01</leafValues></_>
        <_>
          <internalNodes>
            0 -1 51 3.2301163300871849e-03</internalNodes>
          <leafValues>
            -3.0040118098258972e-01 8.0179798603057861e-01</leafValues></_>
        <_>
          <internalNodes>
            0 -1 19 -2.0335037334007211e-05</internalNodes>
          <leafValues>
            3.7900564074516296e-01 -6.7935615777969360e-01</leafValues></_>
        <_>
          <internalNodes>
            0 -1 16 -1.8588164821267128e-02</internalNodes>
          <leafValues>
            8.7045651674270630e-01 -2.8469973802566528e-01</leafValues></_>
        <_>
          <internalNodes>
            0 -1 31 -3.9750349242240191e-04</internalNodes>
          <leafValues>
            -8.7319201231002808e-01 3.2005447149276733e-01</leafValues></_>
        <_>
          <internalNodes>
            0 -1 32 3.0429274775087833e-03</internalNodes>
          <leafValues>
            -4.4853544235229492e-01 5.8280092477798462e-01</leafValues></_></weakClassifiers></_>
    <!-- stage 4 -->
    <_>
      <maxWeakCount>9</maxWeakCount>
      <stageThreshold>-6.4351511001586914e-01</stageThreshold>
      <weakClassifiers>
        <_>
          <internalNodes>
            0 -1 44 2.0185485482215881e-02</internalNodes>
          <leafValues>
            -5.0788640975952148e-01 7.3493975400924683e-01</leafValues></_>
        <_>
          <internalNodes>
            0 -1 4 -1.1316358111798763e-02</internalNodes>
          <leafValues>
            5.2181541919708252e-01 -5.0929015874862671e-01</leafValues></_>
        <_>
          <internalNodes>
            0 -1 29 -6.3892302569001913e-04</internalNodes>
          <leafValues>
            -8.6039066314697266e-01 2.4847280979156494e-01</leafValues></_>
        <_>
          <internalNodes>
            0 -1 45 -8.7711084634065628e-03</internalNodes>
          <leafValues>
            4.8066839575767517e-01 -5.1897221803665161e-01</leafValues></_>
        <_>
          <internalNodes>
            0 -1 13 6.3515777583234012e-05</internalNodes>
          <leafValues>
            -6.4477789402008057e-01 3.4453955292701721e-01</leafValues></_>
        <_>
          <internalNodes>
            0 -1 41 -2.7703531668521464e-04</internalNodes>
          <leafValues>
            -9.3552839756011963e-01 2.4436976015567780e-01</leafValues></_>
        <_>
          <internalNodes>
            0 -1 53 3.8922331295907497e-03</internalNodes>
          <leafValues>
            -4.0009716153144836e-01 5.6098967790603638e-01</leafValues></_>
        <_>
          <internalNodes>
            0 -1 38 -6.7703146487474442e-04</internalNodes>
          <leafValues>
            -7.4888867139816284e-01 3.3449125289916992e-01</leafValues></_>
        <_>
          <internalNodes>
            0 -1 8 9.2133646830916405e-04</internalNodes>
          <leafValues>
            -5.9669160842895508e-01 3.5338938236236572e-01</leafValues></_></weakClassifiers></_>
    <!-- stage 5 -->
    <_>
      <maxWeakCount>10</maxWeakCount>
      <stageThreshold>-5.4967194795608521e-01</stageThreshold>
      <weakClassifiers>
        <_>
          <internalNodes>
            0 -1 52 3.6019757390022278e-03</internalNodes>
          <leafValues>
            -5.9712231159210205e-01 5.4098361730575562e-01</leafValues></_>
        <_>
          <internalNodes>
            0 -1 27 2.0423456589924172e-05</internalNodes>
          <leafValues>
            -7.2637993097305298e-01 3.3907592296600342e-01</leafValues></_>
        <_>
          <internalNodes>
            0 -1 5 -9.3900831416249275e-05</internalNodes>
          <leafValues>
            4.1982620954513550e-01 -5.2397853136062622e-01</leafValues></_>
        <_>
          <internalNodes>
            0 -1 20 4.7937534749507904e-02</internalNodes>
          <leafValues>
            -5.7376164197921753e-01 3.7706050276756287e-01</leafValues></_>
        <_>
          <internalNodes>
            0 -1 6 -1.1329719424247742e-01</internalNodes>
          <leafValues>
            6.1499655246734619e-01 -3.7408995628356934e-01</leafValues></_>
        <_>
          <internalNodes>
            0 -1 50 -1.3963745441287756e-03</internalNodes>
          <leafValues>
            -7.9517477750778198e-01 2.9051047563552856e-01</leafValues></_>
        <_>
          <internalNodes>
            0 -1 54 -3.9460224797949195e-05</internalNodes>
          <leafValues>
            4.6734619140625000e-01 -5.3728669881820679e-01</leafValues></_>
        <_>
          <internalNodes>
            0 -1 42 -1.7073347698897123e-03</internalNodes>
          <leafValues>
            3.6485052108764648e-01 -5.6041288375854492e-01</leafValues></_>
        <_>
          <internalNodes>
            0 -1 34 1.1639878153800964e-02</internalNodes>
          <leafValues>
            -4.2105925083160400e-01 5.7417362928390503e-01</leafValues></_>
        <_>
          <internalNodes>
            0 -1 3 2.4405284784734249e-03</internalNodes>
          <leafValues>
            -3.8887879252433777e-01 6.8215703964233398e-01</leafValues></_></weakClassifiers></_>
    <!-- stage 6 -->
    <_>
      <maxWeakCount>10</maxWeakCount>
      <stageThreshold>-7.3243498802185059e-01</stageThreshold>
      <weakClassifiers>
        <_>
          <internalNodes>
            0 -1 46 2.2234917196328752e-05</internalNodes>
          <leafValues>
            -6.9849246740341187e-01 1.9402985274791718e-01</leafValues></_>
        <_>
          <internalNodes>
            0 -1 22 -2.0423456589924172e-05</internalNodes>
          <leafValues>
            2.7243834733963013e-01 -6.6405892372131348e-01</leafValues></_>
        <_>
          <internalNodes>
            0 -1 30 1.2092030374333262e-03</internalNodes>
          <leafValues>
            2.2691966593265533e-01 -8.3522844314575195e-01</leafValues></_>
        <_>
          <internalNodes>
            0 -1 10 -2.3403686645906419e-04</internalNodes>
          <leafValues>
            3.9713314175605774e-01 -5.1601445674896240e-01</leafValues></_>
        <_>
          <internalNodes>
            0 -1 43 2.2742725908756256e-02</internalNodes>
          <leafValues>
            -3.5083821415901184e-01 6.7512738704681396e-01</leafValues></_>
        <_>
          <internalNodes>
            0 -1 40 2.1422776626423001e-05</internalNodes>
          <leafValues>
            -4.9795144796371460e-01 4.5002141594886780e-01</leafValues></_>
        <_>
          <internalNodes>
            0 -1 7 -7.8859983477741480e-04</internalNodes>
          <leafValues>
            -6.7129230499267578e-01 2.9422098398208618e-01</leafValues></_>
        <_>
          <internalNodes>
            0 -1 39 7.0145854260772467e-04</internalNodes>
          <leafValues>
            2.3375879228115082e-01 -8.2086968421936035e-01</leafValues></_>
        <_>
          <internalNodes>
            0 -1 17 -1.2450967915356159e-03</internalNodes>
          <leafValues>
            -7.9418796300888062e-01 2.5135460495948792e-01</leafValues></_>
        <_>
          <internalNodes>
            0 -1 12 -1.2837727554142475e-03</internalNodes>
          <leafValues>
            -8.5119593143463135e-01 1.8592140078544617e-01</leafValues></_></weakClassifiers></_></stages>
  <features>
    <_>
      <rects>
        <_>
          0 0 16 16 -1.</_>
        <_>
          8 0 8 16 2.</_></rects>
      <tilted>0</tilted></_>
    <_>
      <rects>
        <_>
          0 1 24 16 -1.</_>
        <_>
          8 1 8 16 3.</_></rects>
      <tilted>0</tilted></_>
    <_>
      <rects>
        <_>
          0 6 2 18 -1.</_>
        <_>
          0 6 1 9 2.</_>
        <_>
          1 15 1 9 2.</_></rects>
      <tilted>0</tilted></_>
    <_>
      <rects>
        <_>
          0 10 3 6 -1.</_>
        <_>
          1 10 1 6 3.</_></rects>
      <tilted>0</tilted></_>
    <_>
      <rects>
        <_>
          0 13 4 8 -1.</_>
        <_>
          0 13 2 4 2.</_>
        <_>
          2 17 2 4 2.</_></rects>
      <tilted>0</tilted></_>
    <_>
      <rects>
        <_>
          0 16 2 1 -1.</_>
        <_>
          1 16 1 1 2.</_></rects>
      <tilted>0</tilted></_>
    <_>
      <rects>
        <_>
          1 7 16 16 -1.</_>
        <_>
          9 7 8 16 2.</_></rects>
      <tilted>0</tilted></_>
    <_>
      <rects>
        <_>
          1 9 3 3 -1.</_>
        <_>
          2 9 1 3 3.</_></rects>
      <tilted>0</tilted></_>
    <_>
      <rects>
        <_>
          1 9 2 8 -1.</_>
        <_>
          1 9 1 4 2.</_>
        <_>
          2 13 1 4 2.</_></rects>
      <tilted>0</tilted></_>
    <_>
      <rects>
        <_>
          1 16 6 6 -1.</_>
        <_>
          1 16 3 3 2.</_>
        <_>
          4 19 3 3 2.</_></rects>
      <tilted>0</tilted></_>
    <_>
      <rects>
        <_>
          1 18 2 1 -1.</_>
        <_>
          2 18 1 1 2.</_></rects>
      <tilted>0</tilted></_>
    <_>
      <rects>
        <_>
          2 12 6 8 -1.</_>
        <_>
          2 12 3 4 2.</_>
        <_>
          5 16 3 4 2.</_></rects>
      <tilted>0</tilted></_>
    <_>
      <rects>
        <_>
          2 13 3 5 -1.</_>
        <_>
          3 13 1 5 3.</_></rects>
      <tilted>0</tilted></_>
    <_>
      <rects>
        <_>
          2 15 4 3 -1.</_>
        <_>
          2 16 4 1 3.</_></rects>
      <tilted>0</tilted></_>
    <_>
      <rects>
        <_>
          2 19 6 2 -1.</_>
        <_>
          2 19 3 1 2.</_>
        <_>
          5 20 3 1 2.</_></rects>
      <tilted>0</tilted></_>
    <_>
      <rects>
        <_>
          2 20 12 4 -1.</_>
        <_>
          2 20 6 2 2.</_>
        <_>
          8 22 6 2 2.</_></rects>
      <tilted>0</tilted></_>
    <_>
      <rects>
        <_>
          3 4 9 3 -1.</_>
        <_>
          6 4 3 3 3.</_></rects>
      <tilted>0</tilted></_>
    <_>
      <rects>
        <_>
          3 16 6 3 -1.</_>
        <_>
          3 17 6 1 3.</_></rects>
      <tilted>0</tilted></_>
    <_>
      <rects>
        <_>
          3 19 8 4 -1.</_>
        <_>
          3 19 4 2 2.</_>
        <_>
          7 21 4 2 2.</_></rects>
      <tilted>0</tilted></_>
    <_>
      <rects>
        <_>
          4 9 2 5 -1.</_>
        <_>
          5 9 1 5 2.</_></rects>
      <tilted>0</tilted></_>
    <_>
      <rects>
        <_>
          4 14 15 9 -1.</_>
        <_>
          4 17 15 3 3.</_></rects>
      <tilted>0</tilted></_>
    <_>
      <rects>
        <_>
          5 18 2 6 -1.</_>
        <_>
          5 20 2 2 3.</_></rects>
      <tilted>0</tilted></_>
    <_>
      <rects>
        <_>
          5 19 1 2 -1.</_>
        <_>
          5 20 1 1 2.</_></rects>
      <tilted>0</tilted></_>
    <_>
      <rects>
        <_>
          5 22 14 2 -1.</_>
        <_>
          5 23 14 1 2.</_></rects>
      <tilted>0</tilted></_>
    <_>
      <rects>
        <_>
          6 1 8 12 -1.</_>
        <_>
          6 7 8 6 2.</_></rects>
      <tilted>0</tilted></_>
    <_>
      <rects>
        <_>
          6 21 8 3 -1.</_>
        <_>
          6 22 8 1 3.</_></rects>
      <tilted>0</tilted></_>
    <_>
      <rects>
        <_>
          7 19 10 4 -1.</_>
        <_>
          7 21 10 2 2.</_></rects>
      <tilted>0</tilted></_>
    <_>
      <rects>
        <_>
          8 20 2 2 -1.</_>
        <_>
          9 20 1 2 2.</_></rects>
      <tilted>0</tilted></_>
    <_>
      <rects>
        <_>
          9 20 2 4 -1.</_>
        <_>
          9 20 1 2 2.</_>
        <_>
          10 22 1 2 2.</_></rects>
      <tilted>0</tilted></_>
    <_>
      <rects>
        <_>
          10 21 3 2 -1.</_>
        <_>
          11 21 1 2 3.</_></rects>
      <tilted>0</tilted></_>
    <_>
      <rects>
        <_>
          10 21 3 3 -1.</_>
        <_>
          11 21 1 3 3.</_></rects>
      <tilted>0</tilted></_>
    <_>
      <rects>
        <_>
          11 21 3 1 -1.</_>
        <_>
          12 21 1 1 3.</_></rects>
      <tilted>0</tilted></_>
    <_>
      <rects>
        <_>
          12 0 6 1 -1.</_>
        <_>
          15 0 3 1 2.</_></rects>
      <tilted>0</tilted></_>
    <_>
      <rects>
        <_>
          12 22 6 2 -1.</_>
        <_>
          15 22 3 2 2.</_></rects>
      <tilted>0</tilted></_>
    <_>
      <rects>
        <_>
          13 0 6 3 -1.</_>
        <_>
          16 0 3 3 2.</_></rects>
      <tilted>0</tilted></_>
    <_>
      <rects>
        <_>
          13 1 10 14 -1.</_>
        <_>
          18 1 5 14 2.</_></rects>
      <tilted>0</tilted></_>
    <_>
      <rects>
        <_>
          13 7 10 7 -1.</_>
        <_>
          18 7 5 7 2.</_></rects>
      <tilted>0</tilted></_>
    <_>
      <rects>
        <_>
          13 19 10 4 -1.</_>
        <_>
          13 19 5 2 2.</_>
        <_>
          18 21 5 2 2.</_></rects>
      <tilted>0</tilted></_>
    <_>
      <rects>
        <_>
          13 20 3 3 -1.</_>
        <_>
          14 20 1 3 3.</_></rects>
      <tilted>0</tilted></_>
    <_>
      <rects>
        <_>
          13 21 3 3 -1.</_>
        <_>
          14 21 1 3 3.</_></rects>
      <tilted>0</tilted></_>
    <_>
      <rects>
        <_>
          14 15 3 2 -1.</_>
        <_>
          14 16 3 1 2.</_></rects>
      <tilted>0</tilted></_>
    <_>
      <rects>
        <_>
          14 17 2 2 -1.</_>
        <_>
          14 18 2 1 2.</_></rects>
      <tilted>0</tilted></_>
    <_>
      <rects>
        <_>
          14 21 4 3 -1.</_>
        <_>
          14 22 4 1 3.</_></rects>
      <tilted>0</tilted></_>
    <_>
      <rects>
        <_>
          15 1 9 8 -1.</_>
        <_>
          18 1 3 8 3.</_></rects>
      <tilted>0</tilted></_>
    <_>
      <rects>
        <_>
          16 18 6 4 -1.</_>
        <_>
          16 18 3 2 2.</_>
        <_>
          19 20 3 2 2.</_></rects>
      <tilted>0</tilted></_>
    <_>
      <rects>
        <_>
          16 18 7 6 -1.</_>
        <_>
          16 20 7 2 3.</_></rects>
      <tilted>0</tilted></_>
    <_>
      <rects>
        <_>
          16 21 2 2 -1.</_>
        <_>
          16 21 1 1 2.</_>
        <_>
          17 22 1 1 2.</_></rects>
      <tilted>0</tilted></_>
    <_>
      <rects>
        <_>
          17 10 6 10 -1.</_>
        <_>
          17 10 3 5 2.</_>
        <_>
          20 15 3 5 2.</_></rects>
      <tilted>0</tilted></_>
    <_>
      <rects>
        <_>
          17 16 4 6 -1.</_>
        <_>
          17 19 4 3 2.</_></rects>
      <tilted>0</tilted></_>
    <_>
      <rects>
        <_>
          17 19 6 2 -1.</_>
        <_>
          17 19 3 1 2.</_>
        <_>
          20 20 3 1 2.</_></rects>
      <tilted>0</tilted></_>
    <_>
      <rects>
        <_>
          19 9 4 4 -1.</_>
        <_>
          21 9 2 4 2.</_></rects>
      <tilted>0</tilted></_>
    <_>
      <rects>
        <_>
          20 17 2 4 -1.</_>
        <_>
          20 17 1 2 2.</_>
        <_>
          21 19 1 2 2.</_></rects>
      <tilted>0</tilted></_>
    <_>
      <rects>
        <_>
          21 14 2 6 -1.</_>
        <_>
          21 14 1 3 2.</_>
        <_>
          22 17 1 3 2.</_></rects>
      <tilted>0</tilted></_>
    <_>
      <rects>
        <_>
          22 11 2 8 -1.</_>
        <_>
          22 11 1 4 2.</_>
        <_>
          23 15 1 4 2.</_></rects>
      <tilted>0</tilted></_>
    <_>
      <rects>
        <_>
          22 19 2 2 -1.</_>
        <_>
          22 19 1 1 2.</_>
        <_>
          23 20 1 1 2.</_></rects>
      <tilted>0</tilted></_></features></cascade>
</opencv_storage>
