<?xml version="1.0"?>
<opencv_storage>
<cascade>
  <stageType>BOOST</stageType>
  <featureType>HAAR</featureType>
  <height>24</height>
  <width>24</width>
  <stageParams>
    <boostType>GAB</boostType>
    <minHitRate>9.9900001287460327e-01</minHitRate>
    <maxFalseAlarm>2.0000000298023224e-01</maxFalseAlarm>
    <weightTrimRate>9.4999999999999996e-01</weightTrimRate>
    <maxDepth>1</maxDepth>
    <maxWeakCount>100</maxWeakCount></stageParams>
  <featureParams>
    <maxCatCount>0</maxCatCount>
    <featSize>1</featSize>
    <mode>BASIC</mode></featureParams>
  <stageNum>10</stageNum>
  <stages>
    <!-- stage 0 -->
    <_>
      <maxWeakCount>14</maxWeakCount>
      <stageThreshold>-6.8763107061386108e-01</stageThreshold>
      <weakClassifiers>
        <_>
          <internalNodes>
            0 -1 97 -3.4978643059730530e-02</internalNodes>
          <leafValues>
            6.2758618593215942e-01 -4.8318582773208618e-01</leafValues></_>
        <_>
          <internalNodes>
            0 -1 1 -2.6099494099617004e-01</internalNodes>
          <leafValues>
            8.3670479059219360e-01 -2.0937499403953552e-01</leafValues></_>
        <_>
          <internalNodes>
            0 -1 6 2.0939975976943970e-02</internalNodes>
          <leafValues>
            -2.7611935138702393e-01 6.8357390165328979e-01</leafValues></_>
        <_>
          <internalNodes>
            0 -1 179 -8.3184236427769065e-04</internalNodes>
          <leafValues>
            -7.9893267154693604e-01 2.3346289992332458e-01</leafValues></_>
        <_>
          <internalNodes>
            0 -1 196 1.7761047929525375e-02</internalNodes>
          <leafValues>
            -2.2809432446956635e-01 7.2797381877899170e-01</leafValues></_>
        <_>
          <internalNodes>
            0 -1 43 8.7343500927090645e-03</internalNodes>
          <leafValues>
            1.6949079930782318e-01 -9.0629744529724121e-01</leafValues></_>
        <_>
          <internalNodes>
            0 -1 152 -7.9479254782199860e-04</internalNodes>
          <leafValues>
            -8.2803869247436523e-01 1.6699476540088654e-01</leafValues></_>
        <_>
          <internalNodes>
            0 -1 130 -4.8951542703434825e-04</internalNodes>
          <leafValues>
            -6.8858605623245239e-01 2.4090789258480072e-01</leafValues></_>
        <_>
          <internalNodes>
            0 -1 22 -1.8691290169954300e-02</internalNodes>
          <leafValues>
            7.2864687442779541e-01 -2.5215655565261841e-01</leafValues></_>
        <_>
          <internalNodes>
            0 -1 189 1.7423041164875031e-02</internalNodes>
          <leafValues>
            -2.9416519403457642e-01 5.9394717216491699e-01</leafValues></_>
        <_>
          <internalNodes>
            0 -1 169 -2.4107377976179123e-03</internalNodes>
          <leafValues>
            6.3513833284378052e-01 -2.5916820764541626e-01</leafValues></_>
        <_>
          <internalNodes>
            0 -1 250 -6.3790252897888422e-04</internalNodes>
          <leafValues>
            -7.8803682327270508e-01 2.3628385365009308e-01</leafValues></_>
        <_>
          <internalNodes>
            0 -1 0 -5.3429447114467621e-02</internalNodes>
          <leafValues>
            7.1494638919830322e-01 -2.2440330684185028e-01</leafValues></_>
        <_>
          <internalNodes>
            0 -1 23 2.7394441887736320e-02</internalNodes>
          <leafValues>
            -3.1429934501647949e-01 5.3327810764312744e-01</leafValues></_></weakClassifiers></_>
    <!-- stage 1 -->
    <_>
      <maxWeakCount>17</maxWeakCount>
      <stageThreshold>-1.0466773509979248e+00</stageThreshold>
      <weakClassifiers>
        <_>
          <internalNodes>
            0 -1 149 2.8224647045135498e-02</internalNodes>
          <leafValues>
            -3.4477379918098450e-01 6.1559885740280151e-01</leafValues></_>
        <_>
          <internalNodes>
            0 -1 50 -1.0561890900135040e-02</internalNodes>
          <leafValues>
            5.8313661813735962e-01 -3.2011976838111877e-01</leafValues></_>
        <_>
          <internalNodes>
            0 -1 167 -7.5352762360125780e-04</internalNodes>
          <leafValues>
            -8.1426411867141724e-01 2.1610161662101746e-01</leafValues></_>
        <_>
          <internalNodes>
            0 -1 232 -1.1037509888410568e-02</internalNodes>
          <leafValues>
            5.2209889888763428e-01 -2.8264507651329041e-01</leafValues></_>
        <_>
          <internalNodes>
            0 -1 132 -1.6687542665749788e-03</internalNodes>
          <leafValues>
            -7.9293960332870483e-01 1.6269105672836304e-01</leafValues></_>
        <_>
          <internalNodes>
            0 -1 194 -6.7608355311676860e-04</internalNodes>
          <leafValues>
            -7.1162277460098267e-01 1.4549824595451355e-01</leafValues></_>
        <_>
          <internalNodes>
            0 -1 32 -3.9734788239002228e-02</internalNodes>
          <leafValues>
            6.0605251789093018e-01 -2.0002512633800507e-01</leafValues></_>
        <_>
          <internalNodes>
            0 -1 13 -1.9486762583255768e-02</internalNodes>
          <leafValues>
            5.5459082126617432e-01 -2.5057250261306763e-01</leafValues></_>
        <_>
          <internalNodes>
            0 -1 214 1.8806695938110352e-02</internalNodes>
          <leafValues>
            -2.0737779140472412e-01 5.2581304311752319e-01</leafValues></_>
        <_>
          <internalNodes>
            0 -1 251 2.2677485831081867e-03</internalNodes>
          <leafValues>
            -3.0683866143226624e-01 6.1493355035781860e-01</leafValues></_>
        <_>
          <internalNodes>
            0 -1 18 3.3999877050518990e-03</internalNodes>
          <leafValues>
            2.0668588578701019e-01 -6.8342059850692749e-01</leafValues></_>
        <_>
          <internalNodes>
            0 -1 99 7.3333308100700378e-03</internalNodes>
          <leafValues>
            -2.0100985467433929e-01 6.1492782831192017e-01</leafValues></_>
        <_>
          <internalNodes>
            0 -1 101 -3.0377062037587166e-02</internalNodes>
          <leafValues>
            5.9436267614364624e-01 -2.3825892806053162e-01</leafValues></_>
        <_>
          <internalNodes>
            0 -1 186 1.6162294894456863e-02</internalNodes>
          <leafValues>
            -1.9917428493499756e-01 5.8759403228759766e-01</leafValues></_>
        <_>
          <internalNodes>
            0 -1 38 -5.1189167425036430e-03</internalNodes>
          <leafValues>
            5.7949334383010864e-01 -2.0709143579006195e-01</leafValues></_>
        <_>
          <internalNodes>
            0 -1 86 3.4544520080089569e-02</internalNodes>
          <leafValues>
            -1.2276530265808105e-01 7.5838530063629150e-01</leafValues></_>
        <_>
          <internalNodes>
            0 -1 47 7.7538993209600449e-03</internalNodes>
          <leafValues>
            1.8122614920139313e-01 -7.2822028398513794e-01</leafValues></_></weakClassifiers></_>
    <!-- stage 2 -->
    <_>
      <maxWeakCount>22</maxWeakCount>
      <stageThreshold>-8.2830327749252319e-01</stageThreshold>
      <weakClassifiers>
        <_>
          <internalNodes>
            0 -1 69 -8.6375698447227478e-03</internalNodes>
          <leafValues>
            6.7656767368316650e-01 -2.9411765933036804e-01</leafValues></_>
        <_>
          <internalNodes>
            0 -1 227 7.4928216636180878e-03</internalNodes>
          <leafValues>
            -2.5442111492156982e-01 5.9576028585433960e-01</leafValues></_>
        <_>
          <internalNodes>
            0 -1 111 6.6854585893452168e-03</internalNodes>
          <leafValues>
            -2.2613820433616638e-01 6.1146181821823120e-01</leafValues></_>
        <_>
          <internalNodes>
            0 -1 20 -2.2369870916008949e-02</internalNodes>
          <leafValues>
            6.0121160745620728e-01 -1.9116087257862091e-01</leafValues></_>
        <_>
          <internalNodes>
            0 -1 113 -1.7549034208059311e-02</internalNodes>
          <leafValues>
            5.5342608690261841e-01 -1.8131282925605774e-01</leafValues></_>
        <_>
          <internalNodes>
            0 -1 126 2.8430080041289330e-02</internalNodes>
          <leafValues>
            -1.9397523999214172e-01 6.7206972837448120e-01</leafValues></_>
        <_>
          <internalNodes>
            0 -1 188 3.9485625922679901e-02</internalNodes>
          <leafValues>
            -2.0535498857498169e-01 4.6610614657402039e-01</leafValues></_>
        <_>
          <internalNodes>
            0 -1 118 -3.9387248456478119e-02</internalNodes>
          <leafValues>
            6.1836278438568115e-01 -2.0345053076744080e-01</leafValues></_>
        <_>
          <internalNodes>
            0 -1 68 3.2479306682944298e-03</internalNodes>
          <leafValues>
            -1.6569328308105469e-01 6.2489753961563110e-01</leafValues></_>
        <_>
          <internalNodes>
            0 -1 226 -8.9498069137334824e-03</internalNodes>
          <leafValues>
            5.7624942064285278e-01 -1.9360031187534332e-01</leafValues></_>
        <_>
          <internalNodes>
            0 -1 201 2.9182288795709610e-02</internalNodes>
          <leafValues>
            -1.4390602707862854e-01 6.7305314540863037e-01</leafValues></_>
        <_>
          <internalNodes>
            0 -1 127 1.9700588658452034e-02</internalNodes>
          <leafValues>
            -2.4369610846042633e-01 4.8290300369262695e-01</leafValues></_>
        <_>
          <internalNodes>
            0 -1 54 -2.8284532018005848e-03</internalNodes>
          <leafValues>
            -6.0253709554672241e-01 1.9096606969833374e-01</leafValues></_>
        <_>
          <internalNodes>
            0 -1 10 7.5489617884159088e-03</internalNodes>
          <leafValues>
            -1.7495360970497131e-01 6.4738798141479492e-01</leafValues></_>
        <_>
          <internalNodes>
            0 -1 7 -5.3347609937191010e-03</internalNodes>
          <leafValues>
            5.4463219642639160e-01 -2.0669189095497131e-01</leafValues></_>
        <_>
          <internalNodes>
            0 -1 74 1.9015733152627945e-02</internalNodes>
          <leafValues>
            -2.2168056666851044e-01 4.9230858683586121e-01</leafValues></_>
        <_>
          <internalNodes>
            0 -1 34 -1.6104720532894135e-02</internalNodes>
          <leafValues>
            5.0630497932434082e-01 -2.3764607310295105e-01</leafValues></_>
        <_>
          <internalNodes>
            0 -1 145 6.2478268519043922e-03</internalNodes>
          <leafValues>
            -1.5033398568630219e-01 6.2523603439331055e-01</leafValues></_>
        <_>
          <internalNodes>
            0 -1 63 -3.2748386263847351e-02</internalNodes>
          <leafValues>
            4.7926050424575806e-01 -2.2356887161731720e-01</leafValues></_>
        <_>
          <internalNodes>
            0 -1 236 4.5494446530938148e-03</internalNodes>
          <leafValues>
            -2.2814752161502838e-01 5.5154001712799072e-01</leafValues></_>
        <_>
          <internalNodes>
            0 -1 228 -1.3601728715002537e-03</internalNodes>
          <leafValues>
            5.8453655242919922e-01 -2.0601230859756470e-01</leafValues></_>
        <_>
          <internalNodes>
            0 -1 128 -1.2846130412071943e-03</internalNodes>
          <leafValues>
            -6.8513828516006470e-01 2.0735855400562286e-01</leafValues></_></weakClassifiers></_>
    <!-- stage 3 -->
    <_>
      <maxWeakCount>25</maxWeakCount>
      <stageThreshold>-7.6661640405654907e-01</stageThreshold>
      <weakClassifiers>
        <_>
          <internalNodes>
            0 -1 141 -7.5830728746950626e-04</internalNodes>
          <leafValues>
            -6.9230771064758301e-01 1.9640564918518066e-01</leafValues></_>
        <_>
          <internalNodes>
            0 -1 95 -2.9669951647520065e-02</internalNodes>
          <leafValues>
            3.7127810716629028e-01 -3.4572079777717590e-01</leafValues></_>
        <_>
          <internalNodes>
            0 -1 9 3.4944012761116028e-02</internalNodes>
          <leafValues>
            -1.7934639751911163e-01 5.1254945993423462e-01</leafValues></_>
        <_>
          <internalNodes>
            0 -1 217 7.4756080284714699e-03</internalNodes>
          <leafValues>
            -1.9439403712749481e-01 5.6634330749511719e-01</leafValues></_>
        <_>
          <internalNodes>
            0 -1 197 -2.2423237096518278e-03</internalNodes>
          <leafValues>
            -6.8970221281051636e-01 1.4288040995597839e-01</leafValues></_>
        <_>
          <internalNodes>
            0 -1 224 -5.8331957552582026e-04</internalNodes>
          <leafValues>
            -4.7865360975265503e-01 2.1571524441242218e-01</leafValues></_>
        <_>
          <internalNodes>
            0 -1 94 -1.3489013537764549e-02</internalNodes>
          <leafValues>
            -8.4153980016708374e-01 7.3658607900142670e-02</leafValues></_>
        <_>
          <internalNodes>
            0 -1 67 7.2361719794571400e-03</internalNodes>
          <leafValues>
            1.3534496724605560e-01 -7.3604553937911987e-01</leafValues></_>
        <_>
          <internalNodes>
            0 -1 183 3.6734682507812977e-03</internalNodes>
          <leafValues>
            -2.5004813075065613e-01 3.8332635164260864e-01</leafValues></_>
        <_>
          <internalNodes>
            0 -1 48 4.4822297058999538e-03</internalNodes>
          <leafValues>
            7.6614558696746826e-02 -8.4549617767333984e-01</leafValues></_>
        <_>
          <internalNodes>
            0 -1 203 -1.3259546831250191e-02</internalNodes>
          <leafValues>
            -5.4979377985000610e-01 1.4560845494270325e-01</leafValues></_>
        <_>
          <internalNodes>
            0 -1 73 1.9430924952030182e-01</internalNodes>
          <leafValues>
            1.2780046463012695e-01 -7.6727461814880371e-01</leafValues></_>
        <_>
          <internalNodes>
            0 -1 148 -5.0388518720865250e-03</internalNodes>
          <leafValues>
            -5.9354758262634277e-01 1.3780930638313293e-01</leafValues></_>
        <_>
          <internalNodes>
            0 -1 19 8.0721313133835793e-04</internalNodes>
          <leafValues>
            -2.1066135168075562e-01 4.8264878988265991e-01</leafValues></_>
        <_>
          <internalNodes>
            0 -1 17 -5.2304072305560112e-03</internalNodes>
          <leafValues>
            5.4787516593933105e-01 -1.7930391430854797e-01</leafValues></_>
        <_>
          <internalNodes>
            0 -1 104 3.8901896914467216e-05</internalNodes>
          <leafValues>
            -3.6114239692687988e-01 2.6762720942497253e-01</leafValues></_>
        <_>
          <internalNodes>
            0 -1 72 5.5268208961933851e-04</internalNodes>
          <leafValues>
            1.4906235039234161e-01 -6.3501971960067749e-01</leafValues></_>
        <_>
          <internalNodes>
            0 -1 58 -9.8272264003753662e-02</internalNodes>
          <leafValues>
            -6.9237118959426880e-01 1.4638565480709076e-01</leafValues></_>
        <_>
          <internalNodes>
            0 -1 57 2.6253655552864075e-02</internalNodes>
          <leafValues>
            -1.9559440016746521e-01 5.5481326580047607e-01</leafValues></_>
        <_>
          <internalNodes>
            0 -1 31 -8.3619505167007446e-02</internalNodes>
          <leafValues>
            6.8589180707931519e-01 -1.6669565439224243e-01</leafValues></_>
        <_>
          <internalNodes>
            0 -1 109 -5.6359928566962481e-04</internalNodes>
          <leafValues>
            -4.4751641154289246e-01 2.3702815175056458e-01</leafValues></_>
        <_>
          <internalNodes>
            0 -1 108 -2.7976575074717402e-04</internalNodes>
          <leafValues>
            -4.5744687318801880e-01 1.9889248907566071e-01</leafValues></_>
        <_>
          <internalNodes>
            0 -1 122 8.8444668799638748e-03</internalNodes>
          <leafValues>
            -1.3241574168205261e-01 7.0653474330902100e-01</leafValues></_>
        <_>
          <internalNodes>
            0 -1 71 -7.7635133638978004e-03</internalNodes>
          <leafValues>
            5.5716305971145630e-01 -1.6680751740932465e-01</leafValues></_>
        <_>
          <internalNodes>
            0 -1 207 -2.6922356337308884e-03</internalNodes>
          <leafValues>
            -6.6785120964050293e-01 1.5835756063461304e-01</leafValues></_></weakClassifiers></_>
    <!-- stage 4 -->
    <_>
      <maxWeakCount>26</maxWeakCount>
      <stageThreshold>-6.8695485591888428e-01</stageThreshold>
      <weakClassifiers>
        <_>
          <internalNodes>
            0 -1 185 -1.4091762714087963e-02</internalNodes>
          <leafValues>
            4.7658401727676392e-01 -2.7158555388450623e-01</leafValues></_>
        <_>
          <internalNodes>
            0 -1 123 -3.8751550018787384e-02</internalNodes>
          <leafValues>
            6.1797487735748291e-01 -1.8849271535873413e-01</leafValues></_>
        <_>
          <internalNodes>
            0 -1 245 5.3463391959667206e-03</internalNodes>
          <leafValues>
            -1.7796619236469269e-01 6.2016361951828003e-01</leafValues></_>
        <_>
          <internalNodes>
            0 -1 89 -1.8331032246351242e-02</internalNodes>
          <leafValues>
            6.3887965679168701e-01 -1.7769272625446320e-01</leafValues></_>
        <_>
          <internalNodes>
            0 -1 251 -9.0402271598577499e-03</internalNodes>
          <leafValues>
            8.0480545759201050e-01 -8.9861810207366943e-02</leafValues></_>
        <_>
          <internalNodes>
            0 -1 135 -7.6831039041280746e-04</internalNodes>
          <leafValues>
            -7.7173000574111938e-01 1.3500522077083588e-01</leafValues></_>
        <_>
          <internalNodes>
            0 -1 129 4.4600036926567554e-03</internalNodes>
          <leafValues>
            -2.5771737098693848e-01 3.9963176846504211e-01</leafValues></_>
        <_>
          <internalNodes>
            0 -1 171 -3.8318451493978500e-02</internalNodes>
          <leafValues>
            8.1075477600097656e-01 -1.2254298478364944e-01</leafValues></_>
        <_>
          <internalNodes>
            0 -1 172 9.1949719935655594e-03</internalNodes>
          <leafValues>
            -1.3970294594764709e-01 5.6709897518157959e-01</leafValues></_>
        <_>
          <internalNodes>
            0 -1 136 7.4554346501827240e-03</internalNodes>
          <leafValues>
            -1.1293507367372513e-01 7.9597532749176025e-01</leafValues></_>
        <_>
          <internalNodes>
            0 -1 241 -3.4923672210425138e-03</internalNodes>
          <leafValues>
            2.9190176725387573e-01 -2.8474783897399902e-01</leafValues></_>
        <_>
          <internalNodes>
            0 -1 76 6.0442499816417694e-03</internalNodes>
          <leafValues>
            -1.3202290236949921e-01 5.9940350055694580e-01</leafValues></_>
        <_>
          <internalNodes>
            0 -1 29 9.9274539388716221e-04</internalNodes>
          <leafValues>
            1.8800057470798492e-01 -5.2073997259140015e-01</leafValues></_>
        <_>
          <internalNodes>
            0 -1 90 6.4078336581587791e-03</internalNodes>
          <leafValues>
            -2.3918783664703369e-01 3.7419310212135315e-01</leafValues></_>
        <_>
          <internalNodes>
            0 -1 131 -4.3073564302176237e-04</internalNodes>
          <leafValues>
            -4.1192442178726196e-01 2.2330082952976227e-01</leafValues></_>
        <_>
          <internalNodes>
            0 -1 198 1.6939070774242282e-03</internalNodes>
          <leafValues>
            1.0702010244131088e-01 -6.4904326200485229e-01</leafValues></_>
        <_>
          <internalNodes>
            0 -1 41 7.4654467403888702e-02</internalNodes>
          <leafValues>
            8.0047763884067535e-02 -9.1529655456542969e-01</leafValues></_>
        <_>
          <internalNodes>
            0 -1 181 -2.2957785404287279e-04</internalNodes>
          <leafValues>
            4.2200857400894165e-01 -2.0201623439788818e-01</leafValues></_>
        <_>
          <internalNodes>
            0 -1 35 -1.4187940396368504e-02</internalNodes>
          <leafValues>
            4.1212171316146851e-01 -1.9558899104595184e-01</leafValues></_>
        <_>
          <internalNodes>
            0 -1 8 5.3855692967772484e-03</internalNodes>
          <leafValues>
            -2.5810727477073669e-01 3.1117942929267883e-01</leafValues></_>
        <_>
          <internalNodes>
            0 -1 190 -6.6384038655087352e-04</internalNodes>
          <leafValues>
            -4.0446254611015320e-01 2.1792913973331451e-01</leafValues></_>
        <_>
          <internalNodes>
            0 -1 3 1.4033836778253317e-03</internalNodes>
          <leafValues>
            1.5518744289875031e-01 -5.2190572023391724e-01</leafValues></_>
        <_>
          <internalNodes>
            0 -1 107 -7.3352269828319550e-04</internalNodes>
          <leafValues>
            -4.1531166434288025e-01 2.0191614329814911e-01</leafValues></_>
        <_>
          <internalNodes>
            0 -1 62 2.4179439060389996e-03</internalNodes>
          <leafValues>
            -1.9896142184734344e-01 4.4678714871406555e-01</leafValues></_>
        <_>
          <internalNodes>
            0 -1 252 9.0345078206155449e-05</internalNodes>
          <leafValues>
            -3.1622025370597839e-01 2.7366939187049866e-01</leafValues></_>
        <_>
          <internalNodes>
            0 -1 142 1.7154759261757135e-03</internalNodes>
          <leafValues>
            1.2511874735355377e-01 -6.9751530885696411e-01</leafValues></_></weakClassifiers></_>
    <!-- stage 5 -->
    <_>
      <maxWeakCount>31</maxWeakCount>
      <stageThreshold>-7.1338152885437012e-01</stageThreshold>
      <weakClassifiers>
        <_>
          <internalNodes>
            0 -1 205 6.4619118347764015e-03</internalNodes>
          <leafValues>
            -3.4497815370559692e-01 2.9151290655136108e-01</leafValues></_>
        <_>
          <internalNodes>
            0 -1 77 -2.6816665194928646e-03</internalNodes>
          <leafValues>
            5.0918054580688477e-01 -1.9838757812976837e-01</leafValues></_>
        <_>
          <internalNodes>
            0 -1 154 -7.6572061516344547e-03</internalNodes>
          <leafValues>
            5.4614710807800293e-01 -1.6426445543766022e-01</leafValues></_>
        <_>
          <internalNodes>
            0 -1 233 -7.8761682379990816e-04</internalNodes>
          <leafValues>
            -5.9359955787658691e-01 1.3151375949382782e-01</leafValues></_>
        <_>
          <internalNodes>
            0 -1 12 -6.0665914788842201e-03</internalNodes>
          <leafValues>
            6.0604840517044067e-01 -1.2275760620832443e-01</leafValues></_>
        <_>
          <internalNodes>
            0 -1 16 1.0653899516910315e-03</internalNodes>
          <leafValues>
            -1.8686909973621368e-01 5.7632929086685181e-01</leafValues></_>
        <_>
          <internalNodes>
            0 -1 100 2.2022172808647156e-02</internalNodes>
          <leafValues>
            1.2236199527978897e-01 -7.4480164051055908e-01</leafValues></_>
        <_>
          <internalNodes>
            0 -1 216 -1.1377776972949505e-03</internalNodes>
          <leafValues>
            -4.8897749185562134e-01 1.6296015679836273e-01</leafValues></_>
        <_>
          <internalNodes>
            0 -1 182 -3.0259322375059128e-02</internalNodes>
          <leafValues>
            3.5045462846755981e-01 -2.3717896640300751e-01</leafValues></_>
        <_>
          <internalNodes>
            0 -1 187 1.1516787111759186e-02</internalNodes>
          <leafValues>
            -1.5243425965309143e-01 4.8129031062126160e-01</leafValues></_>
        <_>
          <internalNodes>
            0 -1 163 6.9891400635242462e-03</internalNodes>
          <leafValues>
            -2.0278143882751465e-01 4.9310055375099182e-01</leafValues></_>
        <_>
          <internalNodes>
            0 -1 24 -3.3371993340551853e-03</internalNodes>
          <leafValues>
            -3.7598612904548645e-01 2.0292602479457855e-01</leafValues></_>
        <_>
          <internalNodes>
            0 -1 170 5.8988081291317940e-03</internalNodes>
          <leafValues>
            -1.5522295236587524e-01 4.8750659823417664e-01</leafValues></_>
        <_>
          <internalNodes>
            0 -1 225 -1.3314335374161601e-03</internalNodes>
          <leafValues>
            -5.4106438159942627e-01 1.7316295206546783e-01</leafValues></_>
        <_>
          <internalNodes>
            0 -1 184 -5.8897619601339102e-04</internalNodes>
          <leafValues>
            -4.7872787714004517e-01 1.4141643047332764e-01</leafValues></_>
        <_>
          <internalNodes>
            0 -1 55 -5.1727001846302301e-05</internalNodes>
          <leafValues>
            2.1641081571578979e-01 -3.4971126914024353e-01</leafValues></_>
        <_>
          <internalNodes>
            0 -1 249 -3.9912769570946693e-03</internalNodes>
          <leafValues>
            4.6827906370162964e-01 -1.8514376878738403e-01</leafValues></_>
        <_>
          <internalNodes>
            0 -1 243 -3.5730265080928802e-03</internalNodes>
          <leafValues>
            3.9403963088989258e-01 -2.0624300837516785e-01</leafValues></_>
        <_>
          <internalNodes>
            0 -1 245 -3.5858287010341883e-03</internalNodes>
          <leafValues>
            5.6395322084426880e-01 -1.7181393504142761e-01</leafValues></_>
        <_>
          <internalNodes>
            0 -1 235 7.3102326132357121e-03</internalNodes>
          <leafValues>
            -2.3875010013580322e-01 3.9372718334197998e-01</leafValues></_>
        <_>
          <internalNodes>
            0 -1 37 1.0183941572904587e-02</internalNodes>
          <leafValues>
            -2.3633714020252228e-01 3.5432064533233643e-01</leafValues></_>
        <_>
          <internalNodes>
            0 -1 91 5.9075476601719856e-03</internalNodes>
          <leafValues>
            -1.8258127570152283e-01 5.4536789655685425e-01</leafValues></_>
        <_>
          <internalNodes>
            0 -1 143 -5.6119402870535851e-04</internalNodes>
          <leafValues>
            -6.3325524330139160e-01 1.5611848235130310e-01</leafValues></_>
        <_>
          <internalNodes>
            0 -1 52 -1.4540116535499692e-04</internalNodes>
          <leafValues>
            2.9308572411537170e-01 -2.7776637673377991e-01</leafValues></_>
        <_>
          <internalNodes>
            0 -1 121 -1.2204316444694996e-02</internalNodes>
          <leafValues>
            5.1325625181198120e-01 -1.9117528200149536e-01</leafValues></_>
        <_>
          <internalNodes>
            0 -1 27 7.0476181805133820e-02</internalNodes>
          <leafValues>
            -1.4243334531784058e-01 5.7598364353179932e-01</leafValues></_>
        <_>
          <internalNodes>
            0 -1 219 -1.4460200909525156e-03</internalNodes>
          <leafValues>
            -6.1658900976181030e-01 1.5168792009353638e-01</leafValues></_>
        <_>
          <internalNodes>
            0 -1 180 4.4698016718029976e-03</internalNodes>
          <leafValues>
            -1.5858872234821320e-01 6.1044067144393921e-01</leafValues></_>
        <_>
          <internalNodes>
            0 -1 239 -2.5594094768166542e-03</internalNodes>
          <leafValues>
            -7.3901641368865967e-01 1.4594602584838867e-01</leafValues></_>
        <_>
          <internalNodes>
            0 -1 102 8.4237530827522278e-03</internalNodes>
          <leafValues>
            -1.6777443885803223e-01 6.4791184663772583e-01</leafValues></_>
        <_>
          <internalNodes>
            0 -1 158 -2.5839006528258324e-02</internalNodes>
          <leafValues>
            3.8945317268371582e-01 -2.2299040853977203e-01</leafValues></_></weakClassifiers></_>
    <!-- stage 6 -->
    <_>
      <maxWeakCount>32</maxWeakCount>
      <stageThreshold>-7.9504543542861938e-01</stageThreshold>
      <weakClassifiers>
        <_>
          <internalNodes>
            0 -1 103 4.0556304156780243e-05</internalNodes>
          <leafValues>
            -3.4228187799453735e-01 2.7667269110679626e-01</leafValues></_>
        <_>
          <internalNodes>
            0 -1 84 -8.1643369048833847e-03</internalNodes>
          <leafValues>
            3.4880369901657104e-01 -2.8443634510040283e-01</leafValues></_>
        <_>
          <internalNodes>
            0 -1 56 -2.5742325931787491e-02</internalNodes>
          <leafValues>
            6.1585420370101929e-01 -1.1541838198900223e-01</leafValues></_>
        <_>
          <internalNodes>
            0 -1 11 1.5465210191905499e-02</internalNodes>
          <leafValues>
            -2.2920715808868408e-01 3.5685569047927856e-01</leafValues></_>
        <_>
          <internalNodes>
            0 -1 125 -1.1277498677372932e-02</internalNodes>
          <leafValues>
            6.0694557428359985e-01 -1.3221590220928192e-01</leafValues></_>
        <_>
          <internalNodes>
            0 -1 120 -8.7372603593394160e-04</internalNodes>
          <leafValues>
            -7.5685292482376099e-01 1.1745236814022064e-01</leafValues></_>
        <_>
          <internalNodes>
            0 -1 209 -8.6505780927836895e-05</internalNodes>
          <leafValues>
            2.7175301313400269e-01 -3.0050882697105408e-01</leafValues></_>
        <_>
          <internalNodes>
            0 -1 115 6.9394987076520920e-03</internalNodes>
          <leafValues>
            -1.7044022679328918e-01 4.3913924694061279e-01</leafValues></_>
        <_>
          <internalNodes>
            0 -1 157 2.3848146200180054e-02</internalNodes>
          <leafValues>
            -1.5824392437934875e-01 5.1580250263214111e-01</leafValues></_>
        <_>
          <internalNodes>
            0 -1 166 1.2390444753691554e-03</internalNodes>
          <leafValues>
            1.0382797569036484e-01 -6.5557593107223511e-01</leafValues></_>
        <_>
          <internalNodes>
            0 -1 175 1.1405677534639835e-02</internalNodes>
          <leafValues>
            -2.7439540624618530e-01 3.1654730439186096e-01</leafValues></_>
        <_>
          <internalNodes>
            0 -1 87 -7.0082087768241763e-04</internalNodes>
          <leafValues>
            -5.1462775468826294e-01 1.5803450345993042e-01</leafValues></_>
        <_>
          <internalNodes>
            0 -1 213 -2.1633875439874828e-04</internalNodes>
          <leafValues>
            3.9194068312644958e-01 -1.9751112163066864e-01</leafValues></_>
        <_>
          <internalNodes>
            0 -1 88 1.1839987337589264e-01</internalNodes>
          <leafValues>
            1.0659060627222061e-01 -7.9021316766738892e-01</leafValues></_>
        <_>
          <internalNodes>
            0 -1 200 -6.4393354114145041e-04</internalNodes>
          <leafValues>
            -4.6021172404289246e-01 1.5156178176403046e-01</leafValues></_>
        <_>
          <internalNodes>
            0 -1 230 4.1592691559344530e-05</internalNodes>
          <leafValues>
            -2.8546789288520813e-01 2.7088120579719543e-01</leafValues></_>
        <_>
          <internalNodes>
            0 -1 25 -2.5665888097137213e-04</internalNodes>
          <leafValues>
            3.1544035673141479e-01 -2.5571209192276001e-01</leafValues></_>
        <_>
          <internalNodes>
            0 -1 53 1.0995771735906601e-03</internalNodes>
          <leafValues>
            -1.5205971896648407e-01 4.9517834186553955e-01</leafValues></_>
        <_>
          <internalNodes>
            0 -1 112 -1.3334443792700768e-02</internalNodes>
          <leafValues>
            4.4250503182411194e-01 -1.7030636966228485e-01</leafValues></_>
        <_>
          <internalNodes>
            0 -1 139 4.6425648179138079e-05</internalNodes>
          <leafValues>
            -2.4945180118083954e-01 3.5928845405578613e-01</leafValues></_>
        <_>
          <internalNodes>
            0 -1 66 -3.5374660510569811e-03</internalNodes>
          <leafValues>
            -6.2213975191116333e-01 1.3266240060329437e-01</leafValues></_>
        <_>
          <internalNodes>
            0 -1 14 -8.7154209613800049e-03</internalNodes>
          <leafValues>
            -8.9205986261367798e-01 7.5630977749824524e-02</leafValues></_>
        <_>
          <internalNodes>
            0 -1 159 -6.4752050675451756e-03</internalNodes>
          <leafValues>
            7.6004701852798462e-01 -1.2650756537914276e-01</leafValues></_>
        <_>
          <internalNodes>
            0 -1 218 -2.5397085119038820e-04</internalNodes>
          <leafValues>
            4.4308233261108398e-01 -1.6870066523551941e-01</leafValues></_>
        <_>
          <internalNodes>
            0 -1 174 -1.0299682617187500e-02</internalNodes>
          <leafValues>
            6.7174726724624634e-01 -1.1723206937313080e-01</leafValues></_>
        <_>
          <internalNodes>
            0 -1 81 -5.4129213094711304e-03</internalNodes>
          <leafValues>
            2.7592480182647705e-01 -2.8218352794647217e-01</leafValues></_>
        <_>
          <internalNodes>
            0 -1 83 6.9951489567756653e-03</internalNodes>
          <leafValues>
            -1.2944008409976959e-01 6.7659980058670044e-01</leafValues></_>
        <_>
          <internalNodes>
            0 -1 117 -2.2249803878366947e-03</internalNodes>
          <leafValues>
            -6.3118559122085571e-01 1.3746109604835510e-01</leafValues></_>
        <_>
          <internalNodes>
            0 -1 92 -2.4145699571818113e-03</internalNodes>
          <leafValues>
            -6.2433719635009766e-01 1.0483346134424210e-01</leafValues></_>
        <_>
          <internalNodes>
            0 -1 162 -1.6485169529914856e-02</internalNodes>
          <leafValues>
            6.4948630332946777e-01 -1.3242943584918976e-01</leafValues></_>
        <_>
          <internalNodes>
            0 -1 21 2.1740831434726715e-03</internalNodes>
          <leafValues>
            -1.1870544403791428e-01 5.6379371881484985e-01</leafValues></_>
        <_>
          <internalNodes>
            0 -1 165 -1.1790751013904810e-03</internalNodes>
          <leafValues>
            -5.0989669561386108e-01 1.6393393278121948e-01</leafValues></_></weakClassifiers></_>
    <!-- stage 7 -->
    <_>
      <maxWeakCount>31</maxWeakCount>
      <stageThreshold>-7.0352327823638916e-01</stageThreshold>
      <weakClassifiers>
        <_>
          <internalNodes>
            0 -1 238 1.8739848746918142e-04</internalNodes>
          <leafValues>
            -3.5470941662788391e-01 3.5329341888427734e-01</leafValues></_>
        <_>
          <internalNodes>
            0 -1 70 -1.6262091696262360e-02</internalNodes>
          <leafValues>
            3.7132310867309570e-01 -2.5858962535858154e-01</leafValues></_>
        <_>
          <internalNodes>
            0 -1 133 3.1958989799022675e-02</internalNodes>
          <leafValues>
            -1.3541458547115326e-01 6.1092644929885864e-01</leafValues></_>
        <_>
          <internalNodes>
            0 -1 49 -6.0957926325500011e-03</internalNodes>
          <leafValues>
            -6.3377171754837036e-01 1.4414615929126740e-01</leafValues></_>
        <_>
          <internalNodes>
            0 -1 208 1.1613694950938225e-03</internalNodes>
          <leafValues>
            -2.5342810153961182e-01 3.8863903284072876e-01</leafValues></_>
        <_>
          <internalNodes>
            0 -1 231 -2.5097012519836426e-02</internalNodes>
          <leafValues>
            4.1059651970863342e-01 -2.0381313562393188e-01</leafValues></_>
        <_>
          <internalNodes>
            0 -1 178 2.1492135711014271e-03</internalNodes>
          <leafValues>
            1.9483934342861176e-01 -6.1407679319381714e-01</leafValues></_>
        <_>
          <internalNodes>
            0 -1 155 7.3224742664024234e-05</internalNodes>
          <leafValues>
            -3.2087689638137817e-01 2.5726884603500366e-01</leafValues></_>
        <_>
          <internalNodes>
            0 -1 75 -4.6247406862676144e-03</internalNodes>
          <leafValues>
            -6.6942733526229858e-01 1.1999084055423737e-01</leafValues></_>
        <_>
          <internalNodes>
            0 -1 199 -1.1741816997528076e-02</internalNodes>
          <leafValues>
            8.0384665727615356e-01 -1.1855036765336990e-01</leafValues></_>
        <_>
          <internalNodes>
            0 -1 215 1.3476284220814705e-03</internalNodes>
          <leafValues>
            1.8166916072368622e-01 -5.7932132482528687e-01</leafValues></_>
        <_>
          <internalNodes>
            0 -1 59 3.3009506296366453e-04</internalNodes>
          <leafValues>
            -2.1633265912532806e-01 4.2361891269683838e-01</leafValues></_>
        <_>
          <internalNodes>
            0 -1 42 3.4731533378362656e-03</internalNodes>
          <leafValues>
            -1.1292037367820740e-01 6.2672644853591919e-01</leafValues></_>
        <_>
          <internalNodes>
            0 -1 45 -1.1940469965338707e-02</internalNodes>
          <leafValues>
            6.5993535518646240e-01 -1.2654508650302887e-01</leafValues></_>
        <_>
          <internalNodes>
            0 -1 80 2.5480886921286583e-02</internalNodes>
          <leafValues>
            -2.1525903046131134e-01 4.0149384737014771e-01</leafValues></_>
        <_>
          <internalNodes>
            0 -1 229 3.1263125129044056e-03</internalNodes>
          <leafValues>
            1.4117792248725891e-01 -6.9739359617233276e-01</leafValues></_>
        <_>
          <internalNodes>
            0 -1 116 1.6303505748510361e-02</internalNodes>
          <leafValues>
            -1.4821788668632507e-01 7.0416682958602905e-01</leafValues></_>
        <_>
          <internalNodes>
            0 -1 248 1.9635275748441927e-05</internalNodes>
          <leafValues>
            -2.5805959105491638e-01 2.8442654013633728e-01</leafValues></_>
        <_>
          <internalNodes>
            0 -1 144 2.9260418377816677e-03</internalNodes>
          <leafValues>
            -1.4578187465667725e-01 5.9566551446914673e-01</leafValues></_>
        <_>
          <internalNodes>
            0 -1 204 -1.2651425786316395e-03</internalNodes>
          <leafValues>
            -4.9101909995079041e-01 1.6503898799419403e-01</leafValues></_>
        <_>
          <internalNodes>
            0 -1 161 4.8888176679611206e-03</internalNodes>
          <leafValues>
            -1.5177132189273834e-01 5.5511724948883057e-01</leafValues></_>
        <_>
          <internalNodes>
            0 -1 85 1.4517617225646973e-01</internalNodes>
          <leafValues>
            1.0617488622665405e-01 -7.9367768764495850e-01</leafValues></_>
        <_>
          <internalNodes>
            0 -1 247 -2.9842467047274113e-03</internalNodes>
          <leafValues>
            5.4572039842605591e-01 -1.7279253900051117e-01</leafValues></_>
        <_>
          <internalNodes>
            0 -1 240 -6.1857565306127071e-03</internalNodes>
          <leafValues>
            4.3061932921409607e-01 -1.8846061825752258e-01</leafValues></_>
        <_>
          <internalNodes>
            0 -1 28 -4.6970588155090809e-03</internalNodes>
          <leafValues>
            2.6542809605598450e-01 -3.3649644255638123e-01</leafValues></_>
        <_>
          <internalNodes>
            0 -1 202 -1.2788811000064015e-03</internalNodes>
          <leafValues>
            -4.6017748117446899e-01 1.7033986747264862e-01</leafValues></_>
        <_>
          <internalNodes>
            0 -1 177 2.7223080396652222e-03</internalNodes>
          <leafValues>
            -1.8014681339263916e-01 4.9590712785720825e-01</leafValues></_>
        <_>
          <internalNodes>
            0 -1 191 -2.5293389335274696e-02</internalNodes>
          <leafValues>
            5.0071328878402710e-01 -1.6292500495910645e-01</leafValues></_>
        <_>
          <internalNodes>
            0 -1 244 3.5321370232850313e-03</internalNodes>
          <leafValues>
            -1.3468739390373230e-01 6.0288399457931519e-01</leafValues></_>
        <_>
          <internalNodes>
            0 -1 65 6.5154870972037315e-03</internalNodes>
          <leafValues>
            1.0658267140388489e-01 -8.4930902719497681e-01</leafValues></_>
        <_>
          <internalNodes>
            0 -1 160 -1.2625001370906830e-02</internalNodes>
          <leafValues>
            5.1664960384368896e-01 -1.7113944888114929e-01</leafValues></_></weakClassifiers></_>
    <!-- stage 8 -->
    <_>
      <maxWeakCount>30</maxWeakCount>
      <stageThreshold>-7.0236039161682129e-01</stageThreshold>
      <weakClassifiers>
        <_>
          <internalNodes>
            0 -1 151 -4.6434864634647965e-04</internalNodes>
          <leafValues>
            -7.0454543828964233e-01 1.5048544108867645e-01</leafValues></_>
        <_>
          <internalNodes>
            0 -1 153 9.6822512568905950e-04</internalNodes>
          <leafValues>
            1.4446714520454407e-01 -6.5027511119842529e-01</leafValues></_>
        <_>
          <internalNodes>
            0 -1 68 -7.1247131563723087e-03</internalNodes>
          <leafValues>
            4.6749401092529297e-01 -2.1000006794929504e-01</leafValues></_>
        <_>
          <internalNodes>
            0 -1 223 -3.3171830000355840e-04</internalNodes>
          <leafValues>
            -4.8560974001884460e-01 1.9318054616451263e-01</leafValues></_>
        <_>
          <internalNodes>
            0 -1 51 -7.9606473445892334e-02</internalNodes>
          <leafValues>
            4.9832946062088013e-01 -1.6699880361557007e-01</leafValues></_>
        <_>
          <internalNodes>
            0 -1 246 5.3044580854475498e-03</internalNodes>
          <leafValues>
            -1.5873235464096069e-01 5.6004184484481812e-01</leafValues></_>
        <_>
          <internalNodes>
            0 -1 195 -6.3754105940461159e-03</internalNodes>
          <leafValues>
            4.9652314186096191e-01 -1.5788565576076508e-01</leafValues></_>
        <_>
          <internalNodes>
            0 -1 93 1.9055298762395978e-03</internalNodes>
          <leafValues>
            1.5712536871433258e-01 -5.3970795869827271e-01</leafValues></_>
        <_>
          <internalNodes>
            0 -1 176 -6.3291180413216352e-04</internalNodes>
          <leafValues>
            -5.3116750717163086e-01 1.7142044007778168e-01</leafValues></_>
        <_>
          <internalNodes>
            0 -1 193 -3.2729650847613811e-03</internalNodes>
          <leafValues>
            -6.5242236852645874e-01 8.3050124347209930e-02</leafValues></_>
        <_>
          <internalNodes>
            0 -1 78 3.7385895848274231e-03</internalNodes>
          <leafValues>
            -1.5384489297866821e-01 5.3185290098190308e-01</leafValues></_>
        <_>
          <internalNodes>
            0 -1 119 -6.1758674681186676e-02</internalNodes>
          <leafValues>
            6.8728673458099365e-01 -8.1777736544609070e-02</leafValues></_>
        <_>
          <internalNodes>
            0 -1 46 1.1125648161396384e-03</internalNodes>
          <leafValues>
            1.6224470734596252e-01 -4.8996770381927490e-01</leafValues></_>
        <_>
          <internalNodes>
            0 -1 105 1.8916551023721695e-02</internalNodes>
          <leafValues>
            -1.5909421443939209e-01 5.3995943069458008e-01</leafValues></_>
        <_>
          <internalNodes>
            0 -1 106 -1.0881472378969193e-02</internalNodes>
          <leafValues>
            3.8314419984817505e-01 -1.6767020523548126e-01</leafValues></_>
        <_>
          <internalNodes>
            0 -1 40 2.1275766193866730e-03</internalNodes>
          <leafValues>
            -1.9502723217010498e-01 3.6502218246459961e-01</leafValues></_>
        <_>
          <internalNodes>
            0 -1 132 -1.0315396357327700e-03</internalNodes>
          <leafValues>
            -5.4393190145492554e-01 1.5865132212638855e-01</leafValues></_>
        <_>
          <internalNodes>
            0 -1 140 -1.8994328565895557e-03</internalNodes>
          <leafValues>
            -5.7624608278274536e-01 1.0096874833106995e-01</leafValues></_>
        <_>
          <internalNodes>
            0 -1 211 -1.2348607182502747e-02</internalNodes>
          <leafValues>
            3.6311662197113037e-01 -1.9167706370353699e-01</leafValues></_>
        <_>
          <internalNodes>
            0 -1 124 -6.3218371942639351e-03</internalNodes>
          <leafValues>
            5.1244807243347168e-01 -1.2727224826812744e-01</leafValues></_>
        <_>
          <internalNodes>
            0 -1 206 1.7863642424345016e-03</internalNodes>
          <leafValues>
            1.0509713739156723e-01 -7.5580334663391113e-01</leafValues></_>
        <_>
          <internalNodes>
            0 -1 156 4.8479023389518261e-03</internalNodes>
          <leafValues>
            -1.5278603136539459e-01 5.0217759609222412e-01</leafValues></_>
        <_>
          <internalNodes>
            0 -1 137 -3.7552192807197571e-03</internalNodes>
          <leafValues>
            3.4223780035972595e-01 -2.1623015403747559e-01</leafValues></_>
        <_>
          <internalNodes>
            0 -1 2 7.2165438905358315e-04</internalNodes>
          <leafValues>
            1.2167174369096756e-01 -5.7042378187179565e-01</leafValues></_>
        <_>
          <internalNodes>
            0 -1 146 4.8330490244552493e-04</internalNodes>
          <leafValues>
            1.5475827455520630e-01 -4.5636636018753052e-01</leafValues></_>
        <_>
          <internalNodes>
            0 -1 237 -1.5754876658320427e-03</internalNodes>
          <leafValues>
            5.6650328636169434e-01 -1.2561316788196564e-01</leafValues></_>
        <_>
          <internalNodes>
            0 -1 64 -2.2337120026350021e-02</internalNodes>
          <leafValues>
            4.8815888166427612e-01 -1.4329512417316437e-01</leafValues></_>
        <_>
          <internalNodes>
            0 -1 79 9.1030634939670563e-03</internalNodes>
          <leafValues>
            -2.1491105854511261e-01 4.3288302421569824e-01</leafValues></_>
        <_>
          <internalNodes>
            0 -1 135 5.0539337098598480e-04</internalNodes>
          <leafValues>
            1.4529421925544739e-01 -5.1591098308563232e-01</leafValues></_>
        <_>
          <internalNodes>
            0 -1 26 3.9321184158325195e-03</internalNodes>
          <leafValues>
            -1.3403664529323578e-01 6.4090567827224731e-01</leafValues></_></weakClassifiers></_>
    <!-- stage 9 -->
    <_>
      <maxWeakCount>33</maxWeakCount>
      <stageThreshold>-6.0541301965713501e-01</stageThreshold>
      <weakClassifiers>
        <_>
          <internalNodes>
            0 -1 134 5.7647395879030228e-03</internalNodes>
          <leafValues>
            1.5422885119915009e-01 -6.3265305757522583e-01</leafValues></_>
        <_>
          <internalNodes>
            0 -1 147 -7.7538311481475830e-02</internalNodes>
          <leafValues>
            4.0594404935836792e-01 -2.4911729991436005e-01</leafValues></_>
        <_>
          <internalNodes>
            0 -1 164 -2.1588560193777084e-03</internalNodes>
          <leafValues>
            -7.2105246782302856e-01 1.0531646013259888e-01</leafValues></_>
        <_>
          <internalNodes>
            0 -1 82 -2.5217751972377300e-03</internalNodes>
          <leafValues>
            4.3981671333312988e-01 -1.4403732120990753e-01</leafValues></_>
        <_>
          <internalNodes>
            0 -1 15 -4.0726661682128906e-03</internalNodes>
          <leafValues>
            3.9523577690124512e-01 -1.9389858841896057e-01</leafValues></_>
        <_>
          <internalNodes>
            0 -1 5 4.5359972864389420e-03</internalNodes>
          <leafValues>
            -1.3252542912960052e-01 5.3510951995849609e-01</leafValues></_>
        <_>
          <internalNodes>
            0 -1 223 4.3595663737505674e-04</internalNodes>
          <leafValues>
            1.2126727402210236e-01 -5.4997920989990234e-01</leafValues></_>
        <_>
          <internalNodes>
            0 -1 210 -1.8945878764498048e-05</internalNodes>
          <leafValues>
            2.4279327690601349e-01 -2.8554064035415649e-01</leafValues></_>
        <_>
          <internalNodes>
            0 -1 128 1.6447063535451889e-03</internalNodes>
          <leafValues>
            1.1966250091791153e-01 -5.9874892234802246e-01</leafValues></_>
        <_>
          <internalNodes>
            0 -1 220 4.5781146036460996e-04</internalNodes>
          <leafValues>
            1.2246744334697723e-01 -4.7070735692977905e-01</leafValues></_>
        <_>
          <internalNodes>
            0 -1 44 1.9810828566551208e-01</internalNodes>
          <leafValues>
            -1.2680323421955109e-01 6.6660314798355103e-01</leafValues></_>
        <_>
          <internalNodes>
            0 -1 36 1.4972945209592581e-03</internalNodes>
          <leafValues>
            -2.0217609405517578e-01 3.1837689876556396e-01</leafValues></_>
        <_>
          <internalNodes>
            0 -1 33 -1.1287164688110352e-01</internalNodes>
          <leafValues>
            3.9406386017799377e-01 -1.9036220014095306e-01</leafValues></_>
        <_>
          <internalNodes>
            0 -1 168 -1.3117860071361065e-03</internalNodes>
          <leafValues>
            -6.9463849067687988e-01 1.1284420639276505e-01</leafValues></_>
        <_>
          <internalNodes>
            0 -1 242 -6.7128217779099941e-03</internalNodes>
          <leafValues>
            4.7144770622253418e-01 -1.7574630677700043e-01</leafValues></_>
        <_>
          <internalNodes>
            0 -1 192 -1.9265741575509310e-03</internalNodes>
          <leafValues>
            -6.9528996944427490e-01 1.0604939609766006e-01</leafValues></_>
        <_>
          <internalNodes>
            0 -1 98 -1.7433656612411141e-03</internalNodes>
          <leafValues>
            4.7286006808280945e-01 -1.6997990012168884e-01</leafValues></_>
        <_>
          <internalNodes>
            0 -1 234 2.4965249467641115e-03</internalNodes>
          <leafValues>
            -1.3908822834491730e-01 5.6108385324478149e-01</leafValues></_>
        <_>
          <internalNodes>
            0 -1 30 6.5531297586858273e-03</internalNodes>
          <leafValues>
            -1.7575816810131073e-01 3.8714739680290222e-01</leafValues></_>
        <_>
          <internalNodes>
            0 -1 170 -6.4132893458008766e-03</internalNodes>
          <leafValues>
            5.0955247879028320e-01 -1.3485044240951538e-01</leafValues></_>
        <_>
          <internalNodes>
            0 -1 222 -3.0258595943450928e-03</internalNodes>
          <leafValues>
            -7.2546005249023438e-01 1.1023616790771484e-01</leafValues></_>
        <_>
          <internalNodes>
            0 -1 4 -4.9855513498187065e-04</internalNodes>
          <leafValues>
            -5.0107645988464355e-01 1.2308878451585770e-01</leafValues></_>
        <_>
          <internalNodes>
            0 -1 114 2.3751933127641678e-02</internalNodes>
          <leafValues>
            -1.2504732608795166e-01 5.2861851453781128e-01</leafValues></_>
        <_>
          <internalNodes>
            0 -1 212 -1.3097209375700913e-05</internalNodes>
          <leafValues>
            2.9859972000122070e-01 -2.4828436970710754e-01</leafValues></_>
        <_>
          <internalNodes>
            0 -1 221 3.6011682823300362e-04</internalNodes>
          <leafValues>
            1.5595994889736176e-01 -4.5043110847473145e-01</leafValues></_>
        <_>
          <internalNodes>
            0 -1 61 -1.0150067973881960e-03</internalNodes>
          <leafValues>
            -5.6061208248138428e-01 1.0897857695817947e-01</leafValues></_>
        <_>
          <internalNodes>
            0 -1 60 -4.9947056686505675e-04</internalNodes>
          <leafValues>
            -4.1431090235710144e-01 1.6323679685592651e-01</leafValues></_>
        <_>
          <internalNodes>
            0 -1 39 -6.4309742301702499e-03</internalNodes>
          <leafValues>
            5.9248310327529907e-01 -1.2427552789449692e-01</leafValues></_>
        <_>
          <internalNodes>
            0 -1 150 6.7041907459497452e-04</internalNodes>
          <leafValues>
            1.1234181374311447e-01 -7.0537197589874268e-01</leafValues></_>
        <_>
          <internalNodes>
            0 -1 138 6.5410910174250603e-03</internalNodes>
          <leafValues>
            -2.0626348257064819e-01 3.6389154195785522e-01</leafValues></_>
        <_>
          <internalNodes>
            0 -1 173 5.5361658334732056e-02</internalNodes>
          <leafValues>
            -1.2083727121353149e-01 5.5977213382720947e-01</leafValues></_>
        <_>
          <internalNodes>
            0 -1 96 -4.5323148369789124e-02</internalNodes>
          <leafValues>
            6.7605084180831909e-01 -1.0122030228376389e-01</leafValues></_>
        <_>
          <internalNodes>
            0 -1 110 2.5875121355056763e-03</internalNodes>
          <leafValues>
            -2.6095566153526306e-01 3.1224316358566284e-01</leafValues></_></weakClassifiers></_></stages>
  <features>
    <_>
      <rects>
        <_>
          0 0 8 12 -1.</_>
        <_>
          4 0 4 12 2.</_></rects>
      <tilted>0</tilted></_>
    <_>
      <rects>
        <_>
          0 0 24 15 -1.</_>
        <_>
          8 0 8 15 3.</_></rects>
      <tilted>0</tilted></_>
    <_>
      <rects>
        <_>
          0 2 2 1 -1.</_>
        <_>
          1 2 1 1 2.</_></rects>
      <tilted>0</tilted></_>
    <_>
      <rects>
        <_>
          0 2 4 1 -1.</_>
        <_>
          2 2 2 1 2.</_></rects>
      <tilted>0</tilted></_>
    <_>
      <rects>
        <_>
          0 3 1 3 -1.</_>
        <_>
          0 4 1 1 3.</_></rects>
      <tilted>0</tilted></_>
    <_>
      <rects>
        <_>
          0 3 3 11 -1.</_>
        <_>
          1 3 1 11 3.</_></rects>
      <tilted>0</tilted></_>
    <_>
      <rects>
        <_>
          0 4 4 12 -1.</_>
        <_>
          2 4 2 12 2.</_></rects>
      <tilted>0</tilted></_>
    <_>
      <rects>
        <_>
          0 6 2 15 -1.</_>
        <_>
          1 6 1 15 2.</_></rects>
      <tilted>0</tilted></_>
    <_>
      <rects>
        <_>
          0 6 4 7 -1.</_>
        <_>
          2 6 2 7 2.</_></rects>
      <tilted>0</tilted></_>
    <_>
      <rects>
        <_>
          0 6 9 11 -1.</_>
        <_>
          3 6 3 11 3.</_></rects>
      <tilted>0</tilted></_>
    <_>
      <rects>
        <_>
          0 7 2 9 -1.</_>
        <_>
          1 7 1 9 2.</_></rects>
      <tilted>0</tilted></_>
    <_>
      <rects>
        <_>
          0 7 6 8 -1.</_>
        <_>
          2 7 2 8 3.</_></rects>
      <tilted>0</tilted></_>
    <_>
      <rects>
        <_>
          0 8 3 6 -1.</_>
        <_>
          1 8 1 6 3.</_></rects>
      <tilted>0</tilted></_>
    <_>
      <rects>
        <_>
          0 8 4 16 -1.</_>
        <_>
          0 8 2 8 2.</_>
        <_>
          2 16 2 8 2.</_></rects>
      <tilted>0</tilted></_>
    <_>
      <rects>
        <_>
          0 8 16 2 -1.</_>
        <_>
          0 9 16 1 2.</_></rects>
      <tilted>0</tilted></_>
    <_>
      <rects>
        <_>
          0 9 3 5 -1.</_>
        <_>
          1 9 1 5 3.</_></rects>
      <tilted>0</tilted></_>
    <_>
      <rects>
        <_>
          0 10 3 1 -1.</_>
        <_>
          1 10 1 1 3.</_></rects>
      <tilted>0</tilted></_>
    <_>
      <rects>
        <_>
          0 12 3 5 -1.</_>
        <_>
          1 12 1 5 3.</_></rects>
      <tilted>0</tilted></_>
    <_>
      <rects>
        <_>
          0 12 7 3 -1.</_>
        <_>
          0 13 7 1 3.</_></rects>
      <tilted>0</tilted></_>
    <_>
      <rects>
        <_>
          0 13 3 1 -1.</_>
        <_>
          1 13 1 1 3.</_></rects>
      <tilted>0</tilted></_>
    <_>
      <rects>
        <_>
          0 13 6 8 -1.</_>
        <_>
          0 13 3 4 2.</_>
        <_>
          3 17 3 4 2.</_></rects>
      <tilted>0</tilted></_>
    <_>
      <rects>
        <_>
          0 14 3 2 -1.</_>
        <_>
          1 14 1 2 3.</_></rects>
      <tilted>0</tilted></_>
    <_>
      <rects>
        <_>
          0 15 6 6 -1.</_>
        <_>
          0 15 3 3 2.</_>
        <_>
          3 18 3 3 2.</_></rects>
      <tilted>0</tilted></_>
    <_>
      <rects>
        <_>
          0 15 12 6 -1.</_>
        <_>
          6 15 6 6 2.</_></rects>
      <tilted>0</tilted></_>
    <_>
      <rects>
        <_>
          0 16 24 2 -1.</_>
        <_>
          0 16 12 1 2.</_>
        <_>
          12 17 12 1 2.</_></rects>
      <tilted>0</tilted></_>
    <_>
      <rects>
        <_>
          0 17 2 1 -1.</_>
        <_>
          1 17 1 1 2.</_></rects>
      <tilted>0</tilted></_>
    <_>
      <rects>
        <_>
          0 18 6 1 -1.</_>
        <_>
          2 18 2 1 3.</_></rects>
      <tilted>0</tilted></_>
    <_>
      <rects>
        <_>
          0 18 20 4 -1.</_>
        <_>
          10 18 10 4 2.</_></rects>
      <tilted>0</tilted></_>
    <_>
      <rects>
        <_>
          0 18 11 6 -1.</_>
        <_>
          0 20 11 2 3.</_></rects>
      <tilted>0</tilted></_>
    <_>
      <rects>
        <_>
          0 21 2 3 -1.</_>
        <_>
          1 21 1 3 2.</_></rects>
      <tilted>0</tilted></_>
    <_>
      <rects>
        <_>
          1 0 6 6 -1.</_>
        <_>
          1 0 3 3 2.</_>
        <_>
          4 3 3 3 2.</_></rects>
      <tilted>0</tilted></_>
    <_>
      <rects>
        <_>
          1 0 12 12 -1.</_>
        <_>
          5 0 4 12 3.</_></rects>
      <tilted>0</tilted></_>
    <_>
      <rects>
        <_>
          1 0 10 5 -1.</_>
        <_>
          6 0 5 5 2.</_></rects>
      <tilted>0</tilted></_>
    <_>
      <rects>
        <_>
          1 0 14 11 -1.</_>
        <_>
          8 0 7 11 2.</_></rects>
      <tilted>0</tilted></_>
    <_>
      <rects>
        <_>
          1 2 8 4 -1.</_>
        <_>
          5 2 4 4 2.</_></rects>
      <tilted>0</tilted></_>
    <_>
      <rects>
        <_>
          1 2 18 1 -1.</_>
        <_>
          7 2 6 1 3.</_></rects>
      <tilted>0</tilted></_>
    <_>
      <rects>
        <_>
          1 3 3 15 -1.</_>
        <_>
          2 3 1 15 3.</_></rects>
      <tilted>0</tilted></_>
    <_>
      <rects>
        <_>
          1 3 6 17 -1.</_>
        <_>
          3 3 2 17 3.</_></rects>
      <tilted>0</tilted></_>
    <_>
      <rects>
        <_>
          1 4 4 6 -1.</_>
        <_>
          1 4 2 3 2.</_>
        <_>
          3 7 2 3 2.</_></rects>
      <tilted>0</tilted></_>
    <_>
      <rects>
        <_>
          1 5 3 12 -1.</_>
        <_>
          2 5 1 12 3.</_></rects>
      <tilted>0</tilted></_>
    <_>
      <rects>
        <_>
          1 6 6 1 -1.</_>
        <_>
          3 6 2 1 3.</_></rects>
      <tilted>0</tilted></_>
    <_>
      <rects>
        <_>
          1 6 7 12 -1.</_>
        <_>
          1 12 7 6 2.</_></rects>
      <tilted>0</tilted></_>
    <_>
      <rects>
        <_>
          1 11 2 6 -1.</_>
        <_>
          1 11 1 3 2.</_>
        <_>
          2 14 1 3 2.</_></rects>
      <tilted>0</tilted></_>
    <_>
      <rects>
        <_>
          1 11 18 3 -1.</_>
        <_>
          1 12 18 1 3.</_></rects>
      <tilted>0</tilted></_>
    <_>
      <rects>
        <_>
          1 12 22 10 -1.</_>
        <_>
          12 12 11 10 2.</_></rects>
      <tilted>0</tilted></_>
    <_>
      <rects>
        <_>
          1 13 4 6 -1.</_>
        <_>
          1 13 2 3 2.</_>
        <_>
          3 16 2 3 2.</_></rects>
      <tilted>0</tilted></_>
    <_>
      <rects>
        <_>
          1 13 4 2 -1.</_>
        <_>
          1 14 4 1 2.</_></rects>
      <tilted>0</tilted></_>
    <_>
      <rects>
        <_>
          1 13 22 3 -1.</_>
        <_>
          1 14 22 1 3.</_></rects>
      <tilted>0</tilted></_>
    <_>
      <rects>
        <_>
          1 14 5 3 -1.</_>
        <_>
          1 15 5 1 3.</_></rects>
      <tilted>0</tilted></_>
    <_>
      <rects>
        <_>
          1 15 23 3 -1.</_>
        <_>
          1 16 23 1 3.</_></rects>
      <tilted>0</tilted></_>
    <_>
      <rects>
        <_>
          1 16 6 6 -1.</_>
        <_>
          1 16 3 3 2.</_>
        <_>
          4 19 3 3 2.</_></rects>
      <tilted>0</tilted></_>
    <_>
      <rects>
        <_>
          1 16 20 6 -1.</_>
        <_>
          1 19 20 3 2.</_></rects>
      <tilted>0</tilted></_>
    <_>
      <rects>
        <_>
          1 17 2 1 -1.</_>
        <_>
          2 17 1 1 2.</_></rects>
      <tilted>0</tilted></_>
    <_>
      <rects>
        <_>
          1 17 3 2 -1.</_>
        <_>
          2 17 1 2 3.</_></rects>
      <tilted>0</tilted></_>
    <_>
      <rects>
        <_>
          1 18 1 6 -1.</_>
        <_>
          1 21 1 3 2.</_></rects>
      <tilted>0</tilted></_>
    <_>
      <rects>
        <_>
          1 20 4 1 -1.</_>
        <_>
          3 20 2 1 2.</_></rects>
      <tilted>0</tilted></_>
    <_>
      <rects>
        <_>
          2 0 10 2 -1.</_>
        <_>
          7 0 5 2 2.</_></rects>
      <tilted>0</tilted></_>
    <_>
      <rects>
        <_>
          2 3 9 6 -1.</_>
        <_>
          5 3 3 6 3.</_></rects>
      <tilted>0</tilted></_>
    <_>
      <rects>
        <_>
          2 3 19 14 -1.</_>
        <_>
          2 10 19 7 2.</_></rects>
      <tilted>0</tilted></_>
    <_>
      <rects>
        <_>
          2 4 2 2 -1.</_>
        <_>
          2 4 1 1 2.</_>
        <_>
          3 5 1 1 2.</_></rects>
      <tilted>0</tilted></_>
    <_>
      <rects>
        <_>
          2 7 2 3 -1.</_>
        <_>
          2 8 2 1 3.</_></rects>
      <tilted>0</tilted></_>
    <_>
      <rects>
        <_>
          2 9 2 2 -1.</_>
        <_>
          2 10 2 1 2.</_></rects>
      <tilted>0</tilted></_>
    <_>
      <rects>
        <_>
          2 11 2 8 -1.</_>
        <_>
          2 11 1 4 2.</_>
        <_>
          3 15 1 4 2.</_></rects>
      <tilted>0</tilted></_>
    <_>
      <rects>
        <_>
          2 13 6 10 -1.</_>
        <_>
          2 18 6 5 2.</_></rects>
      <tilted>0</tilted></_>
    <_>
      <rects>
        <_>
          2 16 10 6 -1.</_>
        <_>
          2 16 5 3 2.</_>
        <_>
          7 19 5 3 2.</_></rects>
      <tilted>0</tilted></_>
    <_>
      <rects>
        <_>
          2 16 7 3 -1.</_>
        <_>
          2 17 7 1 3.</_></rects>
      <tilted>0</tilted></_>
    <_>
      <rects>
        <_>
          2 16 10 3 -1.</_>
        <_>
          2 17 10 1 3.</_></rects>
      <tilted>0</tilted></_>
    <_>
      <rects>
        <_>
          2 16 15 2 -1.</_>
        <_>
          2 17 15 1 2.</_></rects>
      <tilted>0</tilted></_>
    <_>
      <rects>
        <_>
          2 17 4 4 -1.</_>
        <_>
          2 17 2 2 2.</_>
        <_>
          4 19 2 2 2.</_></rects>
      <tilted>0</tilted></_>
    <_>
      <rects>
        <_>
          2 18 6 4 -1.</_>
        <_>
          2 18 3 2 2.</_>
        <_>
          5 20 3 2 2.</_></rects>
      <tilted>0</tilted></_>
    <_>
      <rects>
        <_>
          2 19 12 4 -1.</_>
        <_>
          2 19 6 2 2.</_>
        <_>
          8 21 6 2 2.</_></rects>
      <tilted>0</tilted></_>
    <_>
      <rects>
        <_>
          2 21 10 1 -1.</_>
        <_>
          7 21 5 1 2.</_></rects>
      <tilted>0</tilted></_>
    <_>
      <rects>
        <_>
          2 23 2 1 -1.</_>
        <_>
          3 23 1 1 2.</_></rects>
      <tilted>0</tilted></_>
    <_>
      <rects>
        <_>
          3 0 21 18 -1.</_>
        <_>
          3 9 21 9 2.</_></rects>
      <tilted>0</tilted></_>
    <_>
      <rects>
        <_>
          3 1 9 6 -1.</_>
        <_>
          6 1 3 6 3.</_></rects>
      <tilted>0</tilted></_>
    <_>
      <rects>
        <_>
          3 13 3 9 -1.</_>
        <_>
          4 13 1 9 3.</_></rects>
      <tilted>0</tilted></_>
    <_>
      <rects>
        <_>
          3 16 4 4 -1.</_>
        <_>
          3 16 2 2 2.</_>
        <_>
          5 18 2 2 2.</_></rects>
      <tilted>0</tilted></_>
    <_>
      <rects>
        <_>
          3 17 2 4 -1.</_>
        <_>
          3 17 1 2 2.</_>
        <_>
          4 19 1 2 2.</_></rects>
      <tilted>0</tilted></_>
    <_>
      <rects>
        <_>
          3 17 4 4 -1.</_>
        <_>
          3 17 2 2 2.</_>
        <_>
          5 19 2 2 2.</_></rects>
      <tilted>0</tilted></_>
    <_>
      <rects>
        <_>
          3 17 10 4 -1.</_>
        <_>
          3 17 5 2 2.</_>
        <_>
          8 19 5 2 2.</_></rects>
      <tilted>0</tilted></_>
    <_>
      <rects>
        <_>
          3 17 16 6 -1.</_>
        <_>
          3 19 16 2 3.</_></rects>
      <tilted>0</tilted></_>
    <_>
      <rects>
        <_>
          3 18 6 6 -1.</_>
        <_>
          3 18 3 3 2.</_>
        <_>
          6 21 3 3 2.</_></rects>
      <tilted>0</tilted></_>
    <_>
      <rects>
        <_>
          3 19 4 2 -1.</_>
        <_>
          3 19 2 1 2.</_>
        <_>
          5 20 2 1 2.</_></rects>
      <tilted>0</tilted></_>
    <_>
      <rects>
        <_>
          3 19 6 4 -1.</_>
        <_>
          3 19 3 2 2.</_>
        <_>
          6 21 3 2 2.</_></rects>
      <tilted>0</tilted></_>
    <_>
      <rects>
        <_>
          3 20 17 2 -1.</_>
        <_>
          3 21 17 1 2.</_></rects>
      <tilted>0</tilted></_>
    <_>
      <rects>
        <_>
          4 1 16 14 -1.</_>
        <_>
          4 8 16 7 2.</_></rects>
      <tilted>0</tilted></_>
    <_>
      <rects>
        <_>
          4 5 12 4 -1.</_>
        <_>
          8 5 4 4 3.</_></rects>
      <tilted>0</tilted></_>
    <_>
      <rects>
        <_>
          4 11 2 2 -1.</_>
        <_>
          4 12 2 1 2.</_></rects>
      <tilted>0</tilted></_>
    <_>
      <rects>
        <_>
          4 15 18 7 -1.</_>
        <_>
          10 15 6 7 3.</_></rects>
      <tilted>0</tilted></_>
    <_>
      <rects>
        <_>
          4 19 8 4 -1.</_>
        <_>
          4 19 4 2 2.</_>
        <_>
          8 21 4 2 2.</_></rects>
      <tilted>0</tilted></_>
    <_>
      <rects>
        <_>
          5 0 6 7 -1.</_>
        <_>
          7 0 2 7 3.</_></rects>
      <tilted>0</tilted></_>
    <_>
      <rects>
        <_>
          5 1 3 18 -1.</_>
        <_>
          6 1 1 18 3.</_></rects>
      <tilted>0</tilted></_>
    <_>
      <rects>
        <_>
          5 16 3 5 -1.</_>
        <_>
          6 16 1 5 3.</_></rects>
      <tilted>0</tilted></_>
    <_>
      <rects>
        <_>
          5 16 3 6 -1.</_>
        <_>
          6 16 1 6 3.</_></rects>
      <tilted>0</tilted></_>
    <_>
      <rects>
        <_>
          5 17 6 7 -1.</_>
        <_>
          7 17 2 7 3.</_></rects>
      <tilted>0</tilted></_>
    <_>
      <rects>
        <_>
          5 17 9 6 -1.</_>
        <_>
          5 20 9 3 2.</_></rects>
      <tilted>0</tilted></_>
    <_>
      <rects>
        <_>
          5 17 14 4 -1.</_>
        <_>
          5 19 14 2 2.</_></rects>
      <tilted>0</tilted></_>
    <_>
      <rects>
        <_>
          5 17 15 6 -1.</_>
        <_>
          5 20 15 3 2.</_></rects>
      <tilted>0</tilted></_>
    <_>
      <rects>
        <_>
          5 18 2 3 -1.</_>
        <_>
          5 19 2 1 3.</_></rects>
      <tilted>0</tilted></_>
    <_>
      <rects>
        <_>
          5 19 3 4 -1.</_>
        <_>
          5 21 3 2 2.</_></rects>
      <tilted>0</tilted></_>
    <_>
      <rects>
        <_>
          5 19 9 4 -1.</_>
        <_>
          8 19 3 4 3.</_></rects>
      <tilted>0</tilted></_>
    <_>
      <rects>
        <_>
          5 19 16 4 -1.</_>
        <_>
          5 21 16 2 2.</_></rects>
      <tilted>0</tilted></_>
    <_>
      <rects>
        <_>
          5 20 14 3 -1.</_>
        <_>
          5 21 14 1 3.</_></rects>
      <tilted>0</tilted></_>
    <_>
      <rects>
        <_>
          5 21 1 2 -1.</_>
        <_>
          5 22 1 1 2.</_></rects>
      <tilted>0</tilted></_>
    <_>
      <rects>
        <_>
          5 22 2 2 -1.</_>
        <_>
          5 23 2 1 2.</_></rects>
      <tilted>0</tilted></_>
    <_>
      <rects>
        <_>
          6 1 6 12 -1.</_>
        <_>
          8 1 2 12 3.</_></rects>
      <tilted>0</tilted></_>
    <_>
      <rects>
        <_>
          6 5 15 12 -1.</_>
        <_>
          6 11 15 6 2.</_></rects>
      <tilted>0</tilted></_>
    <_>
      <rects>
        <_>
          6 12 5 3 -1.</_>
        <_>
          6 13 5 1 3.</_></rects>
      <tilted>0</tilted></_>
    <_>
      <rects>
        <_>
          6 13 2 2 -1.</_>
        <_>
          6 14 2 1 2.</_></rects>
      <tilted>0</tilted></_>
    <_>
      <rects>
        <_>
          6 16 2 2 -1.</_>
        <_>
          6 17 2 1 2.</_></rects>
      <tilted>0</tilted></_>
    <_>
      <rects>
        <_>
          6 19 9 3 -1.</_>
        <_>
          6 20 9 1 3.</_></rects>
      <tilted>0</tilted></_>
    <_>
      <rects>
        <_>
          6 19 13 3 -1.</_>
        <_>
          6 20 13 1 3.</_></rects>
      <tilted>0</tilted></_>
    <_>
      <rects>
        <_>
          7 0 6 6 -1.</_>
        <_>
          9 0 2 6 3.</_></rects>
      <tilted>0</tilted></_>
    <_>
      <rects>
        <_>
          7 0 12 2 -1.</_>
        <_>
          11 0 4 2 3.</_></rects>
      <tilted>0</tilted></_>
    <_>
      <rects>
        <_>
          7 2 6 19 -1.</_>
        <_>
          9 2 2 19 3.</_></rects>
      <tilted>0</tilted></_>
    <_>
      <rects>
        <_>
          7 3 9 2 -1.</_>
        <_>
          10 3 3 2 3.</_></rects>
      <tilted>0</tilted></_>
    <_>
      <rects>
        <_>
          7 4 6 3 -1.</_>
        <_>
          10 4 3 3 2.</_></rects>
      <tilted>0</tilted></_>
    <_>
      <rects>
        <_>
          7 12 7 2 -1.</_>
        <_>
          7 13 7 1 2.</_></rects>
      <tilted>0</tilted></_>
    <_>
      <rects>
        <_>
          7 18 11 6 -1.</_>
        <_>
          7 20 11 2 3.</_></rects>
      <tilted>0</tilted></_>
    <_>
      <rects>
        <_>
          7 18 12 6 -1.</_>
        <_>
          7 20 12 2 3.</_></rects>
      <tilted>0</tilted></_>
    <_>
      <rects>
        <_>
          7 19 3 1 -1.</_>
        <_>
          8 19 1 1 3.</_></rects>
      <tilted>0</tilted></_>
    <_>
      <rects>
        <_>
          7 20 16 1 -1.</_>
        <_>
          15 20 8 1 2.</_></rects>
      <tilted>0</tilted></_>
    <_>
      <rects>
        <_>
          7 20 11 3 -1.</_>
        <_>
          7 21 11 1 3.</_></rects>
      <tilted>0</tilted></_>
    <_>
      <rects>
        <_>
          7 20 11 4 -1.</_>
        <_>
          7 22 11 2 2.</_></rects>
      <tilted>0</tilted></_>
    <_>
      <rects>
        <_>
          7 21 4 3 -1.</_>
        <_>
          7 22 4 1 3.</_></rects>
      <tilted>0</tilted></_>
    <_>
      <rects>
        <_>
          8 0 6 2 -1.</_>
        <_>
          11 0 3 2 2.</_></rects>
      <tilted>0</tilted></_>
    <_>
      <rects>
        <_>
          8 0 9 6 -1.</_>
        <_>
          11 0 3 6 3.</_></rects>
      <tilted>0</tilted></_>
    <_>
      <rects>
        <_>
          8 17 10 6 -1.</_>
        <_>
          8 19 10 2 3.</_></rects>
      <tilted>0</tilted></_>
    <_>
      <rects>
        <_>
          8 18 3 3 -1.</_>
        <_>
          9 18 1 3 3.</_></rects>
      <tilted>0</tilted></_>
    <_>
      <rects>
        <_>
          8 22 13 2 -1.</_>
        <_>
          8 23 13 1 2.</_></rects>
      <tilted>0</tilted></_>
    <_>
      <rects>
        <_>
          9 11 1 3 -1.</_>
        <_>
          9 12 1 1 3.</_></rects>
      <tilted>0</tilted></_>
    <_>
      <rects>
        <_>
          9 17 3 2 -1.</_>
        <_>
          9 18 3 1 2.</_></rects>
      <tilted>0</tilted></_>
    <_>
      <rects>
        <_>
          9 18 3 4 -1.</_>
        <_>
          10 18 1 4 3.</_></rects>
      <tilted>0</tilted></_>
    <_>
      <rects>
        <_>
          9 18 8 6 -1.</_>
        <_>
          9 20 8 2 3.</_></rects>
      <tilted>0</tilted></_>
    <_>
      <rects>
        <_>
          9 19 6 3 -1.</_>
        <_>
          11 19 2 3 3.</_></rects>
      <tilted>0</tilted></_>
    <_>
      <rects>
        <_>
          9 21 3 1 -1.</_>
        <_>
          10 21 1 1 3.</_></rects>
      <tilted>0</tilted></_>
    <_>
      <rects>
        <_>
          9 21 6 3 -1.</_>
        <_>
          9 22 6 1 3.</_></rects>
      <tilted>0</tilted></_>
    <_>
      <rects>
        <_>
          10 0 6 5 -1.</_>
        <_>
          12 0 2 5 3.</_></rects>
      <tilted>0</tilted></_>
    <_>
      <rects>
        <_>
          10 2 6 6 -1.</_>
        <_>
          12 2 2 6 3.</_></rects>
      <tilted>0</tilted></_>
    <_>
      <rects>
        <_>
          10 4 2 2 -1.</_>
        <_>
          10 4 1 1 2.</_>
        <_>
          11 5 1 1 2.</_></rects>
      <tilted>0</tilted></_>
    <_>
      <rects>
        <_>
          10 16 3 4 -1.</_>
        <_>
          11 16 1 4 3.</_></rects>
      <tilted>0</tilted></_>
    <_>
      <rects>
        <_>
          10 20 3 2 -1.</_>
        <_>
          11 20 1 2 3.</_></rects>
      <tilted>0</tilted></_>
    <_>
      <rects>
        <_>
          10 20 3 4 -1.</_>
        <_>
          11 20 1 4 3.</_></rects>
      <tilted>0</tilted></_>
    <_>
      <rects>
        <_>
          10 21 3 1 -1.</_>
        <_>
          11 21 1 1 3.</_></rects>
      <tilted>0</tilted></_>
    <_>
      <rects>
        <_>
          10 21 5 3 -1.</_>
        <_>
          10 22 5 1 3.</_></rects>
      <tilted>0</tilted></_>
    <_>
      <rects>
        <_>
          11 0 6 2 -1.</_>
        <_>
          13 0 2 2 3.</_></rects>
      <tilted>0</tilted></_>
    <_>
      <rects>
        <_>
          11 10 2 2 -1.</_>
        <_>
          11 11 2 1 2.</_></rects>
      <tilted>0</tilted></_>
    <_>
      <rects>
        <_>
          11 14 11 10 -1.</_>
        <_>
          11 19 11 5 2.</_></rects>
      <tilted>0</tilted></_>
    <_>
      <rects>
        <_>
          11 17 6 5 -1.</_>
        <_>
          13 17 2 5 3.</_></rects>
      <tilted>0</tilted></_>
    <_>
      <rects>
        <_>
          11 18 12 6 -1.</_>
        <_>
          11 18 6 3 2.</_>
        <_>
          17 21 6 3 2.</_></rects>
      <tilted>0</tilted></_>
    <_>
      <rects>
        <_>
          11 19 2 2 -1.</_>
        <_>
          11 19 1 1 2.</_>
        <_>
          12 20 1 1 2.</_></rects>
      <tilted>0</tilted></_>
    <_>
      <rects>
        <_>
          11 20 3 1 -1.</_>
        <_>
          12 20 1 1 3.</_></rects>
      <tilted>0</tilted></_>
    <_>
      <rects>
        <_>
          11 21 3 1 -1.</_>
        <_>
          12 21 1 1 3.</_></rects>
      <tilted>0</tilted></_>
    <_>
      <rects>
        <_>
          11 21 3 2 -1.</_>
        <_>
          12 21 1 2 3.</_></rects>
      <tilted>0</tilted></_>
    <_>
      <rects>
        <_>
          11 21 6 3 -1.</_>
        <_>
          11 22 6 1 3.</_></rects>
      <tilted>0</tilted></_>
    <_>
      <rects>
        <_>
          11 22 1 2 -1.</_>
        <_>
          11 23 1 1 2.</_></rects>
      <tilted>0</tilted></_>
    <_>
      <rects>
        <_>
          12 0 3 9 -1.</_>
        <_>
          13 0 1 9 3.</_></rects>
      <tilted>0</tilted></_>
    <_>
      <rects>
        <_>
          12 0 6 6 -1.</_>
        <_>
          15 0 3 6 2.</_></rects>
      <tilted>0</tilted></_>
    <_>
      <rects>
        <_>
          12 0 9 11 -1.</_>
        <_>
          15 0 3 11 3.</_></rects>
      <tilted>0</tilted></_>
    <_>
      <rects>
        <_>
          12 1 3 6 -1.</_>
        <_>
          13 1 1 6 3.</_></rects>
      <tilted>0</tilted></_>
    <_>
      <rects>
        <_>
          12 1 4 8 -1.</_>
        <_>
          12 1 2 4 2.</_>
        <_>
          14 5 2 4 2.</_></rects>
      <tilted>0</tilted></_>
    <_>
      <rects>
        <_>
          12 4 6 2 -1.</_>
        <_>
          14 4 2 2 3.</_></rects>
      <tilted>0</tilted></_>
    <_>
      <rects>
        <_>
          12 4 6 4 -1.</_>
        <_>
          14 4 2 4 3.</_></rects>
      <tilted>0</tilted></_>
    <_>
      <rects>
        <_>
          12 7 6 4 -1.</_>
        <_>
          14 7 2 4 3.</_></rects>
      <tilted>0</tilted></_>
    <_>
      <rects>
        <_>
          12 11 2 3 -1.</_>
        <_>
          12 12 2 1 3.</_></rects>
      <tilted>0</tilted></_>
    <_>
      <rects>
        <_>
          12 17 4 2 -1.</_>
        <_>
          12 18 4 1 2.</_></rects>
      <tilted>0</tilted></_>
    <_>
      <rects>
        <_>
          12 19 3 3 -1.</_>
        <_>
          13 19 1 3 3.</_></rects>
      <tilted>0</tilted></_>
    <_>
      <rects>
        <_>
          12 21 3 1 -1.</_>
        <_>
          13 21 1 1 3.</_></rects>
      <tilted>0</tilted></_>
    <_>
      <rects>
        <_>
          12 23 3 1 -1.</_>
        <_>
          13 23 1 1 3.</_></rects>
      <tilted>0</tilted></_>
    <_>
      <rects>
        <_>
          13 0 6 1 -1.</_>
        <_>
          15 0 2 1 3.</_></rects>
      <tilted>0</tilted></_>
    <_>
      <rects>
        <_>
          13 2 6 2 -1.</_>
        <_>
          15 2 2 2 3.</_></rects>
      <tilted>0</tilted></_>
    <_>
      <rects>
        <_>
          13 2 6 9 -1.</_>
        <_>
          15 2 2 9 3.</_></rects>
      <tilted>0</tilted></_>
    <_>
      <rects>
        <_>
          13 4 6 4 -1.</_>
        <_>
          15 4 2 4 3.</_></rects>
      <tilted>0</tilted></_>
    <_>
      <rects>
        <_>
          13 4 9 13 -1.</_>
        <_>
          16 4 3 13 3.</_></rects>
      <tilted>0</tilted></_>
    <_>
      <rects>
        <_>
          13 8 9 1 -1.</_>
        <_>
          16 8 3 1 3.</_></rects>
      <tilted>0</tilted></_>
    <_>
      <rects>
        <_>
          13 15 5 9 -1.</_>
        <_>
          13 18 5 3 3.</_></rects>
      <tilted>0</tilted></_>
    <_>
      <rects>
        <_>
          13 18 3 2 -1.</_>
        <_>
          14 18 1 2 3.</_></rects>
      <tilted>0</tilted></_>
    <_>
      <rects>
        <_>
          13 18 1 6 -1.</_>
        <_>
          13 20 1 2 3.</_></rects>
      <tilted>0</tilted></_>
    <_>
      <rects>
        <_>
          13 18 3 5 -1.</_>
        <_>
          14 18 1 5 3.</_></rects>
      <tilted>0</tilted></_>
    <_>
      <rects>
        <_>
          13 19 3 2 -1.</_>
        <_>
          14 19 1 2 3.</_></rects>
      <tilted>0</tilted></_>
    <_>
      <rects>
        <_>
          13 21 6 1 -1.</_>
        <_>
          16 21 3 1 2.</_></rects>
      <tilted>0</tilted></_>
    <_>
      <rects>
        <_>
          14 1 2 2 -1.</_>
        <_>
          14 1 1 1 2.</_>
        <_>
          15 2 1 1 2.</_></rects>
      <tilted>0</tilted></_>
    <_>
      <rects>
        <_>
          14 3 10 14 -1.</_>
        <_>
          14 3 5 7 2.</_>
        <_>
          19 10 5 7 2.</_></rects>
      <tilted>0</tilted></_>
    <_>
      <rects>
        <_>
          14 6 9 1 -1.</_>
        <_>
          17 6 3 1 3.</_></rects>
      <tilted>0</tilted></_>
    <_>
      <rects>
        <_>
          14 17 3 3 -1.</_>
        <_>
          15 17 1 3 3.</_></rects>
      <tilted>0</tilted></_>
    <_>
      <rects>
        <_>
          14 18 6 6 -1.</_>
        <_>
          14 20 6 2 3.</_></rects>
      <tilted>0</tilted></_>
    <_>
      <rects>
        <_>
          14 20 10 2 -1.</_>
        <_>
          19 20 5 2 2.</_></rects>
      <tilted>0</tilted></_>
    <_>
      <rects>
        <_>
          15 2 6 10 -1.</_>
        <_>
          17 2 2 10 3.</_></rects>
      <tilted>0</tilted></_>
    <_>
      <rects>
        <_>
          15 4 9 12 -1.</_>
        <_>
          18 4 3 12 3.</_></rects>
      <tilted>0</tilted></_>
    <_>
      <rects>
        <_>
          15 8 9 7 -1.</_>
        <_>
          18 8 3 7 3.</_></rects>
      <tilted>0</tilted></_>
    <_>
      <rects>
        <_>
          15 11 5 3 -1.</_>
        <_>
          15 12 5 1 3.</_></rects>
      <tilted>0</tilted></_>
    <_>
      <rects>
        <_>
          15 15 5 9 -1.</_>
        <_>
          15 18 5 3 3.</_></rects>
      <tilted>0</tilted></_>
    <_>
      <rects>
        <_>
          15 16 3 4 -1.</_>
        <_>
          16 16 1 4 3.</_></rects>
      <tilted>0</tilted></_>
    <_>
      <rects>
        <_>
          15 16 2 7 -1.</_>
        <_>
          16 16 1 7 2.</_></rects>
      <tilted>0</tilted></_>
    <_>
      <rects>
        <_>
          15 17 3 2 -1.</_>
        <_>
          16 17 1 2 3.</_></rects>
      <tilted>0</tilted></_>
    <_>
      <rects>
        <_>
          15 17 6 4 -1.</_>
        <_>
          15 17 3 2 2.</_>
        <_>
          18 19 3 2 2.</_></rects>
      <tilted>0</tilted></_>
    <_>
      <rects>
        <_>
          15 17 8 6 -1.</_>
        <_>
          15 17 4 3 2.</_>
        <_>
          19 20 4 3 2.</_></rects>
      <tilted>0</tilted></_>
    <_>
      <rects>
        <_>
          15 18 3 5 -1.</_>
        <_>
          16 18 1 5 3.</_></rects>
      <tilted>0</tilted></_>
    <_>
      <rects>
        <_>
          15 19 3 4 -1.</_>
        <_>
          16 19 1 4 3.</_></rects>
      <tilted>0</tilted></_>
    <_>
      <rects>
        <_>
          16 4 3 8 -1.</_>
        <_>
          17 4 1 8 3.</_></rects>
      <tilted>0</tilted></_>
    <_>
      <rects>
        <_>
          16 13 1 4 -1.</_>
        <_>
          16 15 1 2 2.</_></rects>
      <tilted>0</tilted></_>
    <_>
      <rects>
        <_>
          16 13 8 8 -1.</_>
        <_>
          16 13 4 4 2.</_>
        <_>
          20 17 4 4 2.</_></rects>
      <tilted>0</tilted></_>
    <_>
      <rects>
        <_>
          16 13 7 3 -1.</_>
        <_>
          16 14 7 1 3.</_></rects>
      <tilted>0</tilted></_>
    <_>
      <rects>
        <_>
          16 14 6 9 -1.</_>
        <_>
          18 14 2 9 3.</_></rects>
      <tilted>0</tilted></_>
    <_>
      <rects>
        <_>
          16 15 3 5 -1.</_>
        <_>
          17 15 1 5 3.</_></rects>
      <tilted>0</tilted></_>
    <_>
      <rects>
        <_>
          17 5 6 13 -1.</_>
        <_>
          19 5 2 13 3.</_></rects>
      <tilted>0</tilted></_>
    <_>
      <rects>
        <_>
          17 10 3 3 -1.</_>
        <_>
          17 11 3 1 3.</_></rects>
      <tilted>0</tilted></_>
    <_>
      <rects>
        <_>
          17 16 3 5 -1.</_>
        <_>
          18 16 1 5 3.</_></rects>
      <tilted>0</tilted></_>
    <_>
      <rects>
        <_>
          17 18 4 2 -1.</_>
        <_>
          17 18 2 1 2.</_>
        <_>
          19 19 2 1 2.</_></rects>
      <tilted>0</tilted></_>
    <_>
      <rects>
        <_>
          17 18 7 3 -1.</_>
        <_>
          17 19 7 1 3.</_></rects>
      <tilted>0</tilted></_>
    <_>
      <rects>
        <_>
          17 22 4 2 -1.</_>
        <_>
          17 22 2 1 2.</_>
        <_>
          19 23 2 1 2.</_></rects>
      <tilted>0</tilted></_>
    <_>
      <rects>
        <_>
          18 1 6 10 -1.</_>
        <_>
          18 1 3 5 2.</_>
        <_>
          21 6 3 5 2.</_></rects>
      <tilted>0</tilted></_>
    <_>
      <rects>
        <_>
          18 2 2 2 -1.</_>
        <_>
          18 2 1 1 2.</_>
        <_>
          19 3 1 1 2.</_></rects>
      <tilted>0</tilted></_>
    <_>
      <rects>
        <_>
          18 3 2 2 -1.</_>
        <_>
          18 3 1 1 2.</_>
        <_>
          19 4 1 1 2.</_></rects>
      <tilted>0</tilted></_>
    <_>
      <rects>
        <_>
          18 4 6 13 -1.</_>
        <_>
          20 4 2 13 3.</_></rects>
      <tilted>0</tilted></_>
    <_>
      <rects>
        <_>
          18 9 3 3 -1.</_>
        <_>
          18 10 3 1 3.</_></rects>
      <tilted>0</tilted></_>
    <_>
      <rects>
        <_>
          18 11 1 4 -1.</_>
        <_>
          18 13 1 2 2.</_></rects>
      <tilted>0</tilted></_>
    <_>
      <rects>
        <_>
          18 17 4 4 -1.</_>
        <_>
          18 17 2 2 2.</_>
        <_>
          20 19 2 2 2.</_></rects>
      <tilted>0</tilted></_>
    <_>
      <rects>
        <_>
          18 20 2 2 -1.</_>
        <_>
          18 20 1 1 2.</_>
        <_>
          19 21 1 1 2.</_></rects>
      <tilted>0</tilted></_>
    <_>
      <rects>
        <_>
          18 22 3 2 -1.</_>
        <_>
          18 23 3 1 2.</_></rects>
      <tilted>0</tilted></_>
    <_>
      <rects>
        <_>
          19 7 1 3 -1.</_>
        <_>
          19 8 1 1 3.</_></rects>
      <tilted>0</tilted></_>
    <_>
      <rects>
        <_>
          19 8 1 3 -1.</_>
        <_>
          19 9 1 1 3.</_></rects>
      <tilted>0</tilted></_>
    <_>
      <rects>
        <_>
          19 8 5 3 -1.</_>
        <_>
          19 9 5 1 3.</_></rects>
      <tilted>0</tilted></_>
    <_>
      <rects>
        <_>
          19 9 1 3 -1.</_>
        <_>
          19 10 1 1 3.</_></rects>
      <tilted>0</tilted></_>
    <_>
      <rects>
        <_>
          19 9 2 4 -1.</_>
        <_>
          20 9 1 4 2.</_></rects>
      <tilted>0</tilted></_>
    <_>
      <rects>
        <_>
          19 10 3 2 -1.</_>
        <_>
          19 11 3 1 2.</_></rects>
      <tilted>0</tilted></_>
    <_>
      <rects>
        <_>
          19 11 4 10 -1.</_>
        <_>
          19 11 2 5 2.</_>
        <_>
          21 16 2 5 2.</_></rects>
      <tilted>0</tilted></_>
    <_>
      <rects>
        <_>
          19 15 4 6 -1.</_>
        <_>
          19 15 2 3 2.</_>
        <_>
          21 18 2 3 2.</_></rects>
      <tilted>0</tilted></_>
    <_>
      <rects>
        <_>
          19 17 2 4 -1.</_>
        <_>
          19 17 1 2 2.</_>
        <_>
          20 19 1 2 2.</_></rects>
      <tilted>0</tilted></_>
    <_>
      <rects>
        <_>
          19 17 5 3 -1.</_>
        <_>
          19 18 5 1 3.</_></rects>
      <tilted>0</tilted></_>
    <_>
      <rects>
        <_>
          19 21 2 1 -1.</_>
        <_>
          20 21 1 1 2.</_></rects>
      <tilted>0</tilted></_>
    <_>
      <rects>
        <_>
          20 4 4 15 -1.</_>
        <_>
          22 4 2 15 2.</_></rects>
      <tilted>0</tilted></_>
    <_>
      <rects>
        <_>
          20 9 1 14 -1.</_>
        <_>
          20 16 1 7 2.</_></rects>
      <tilted>0</tilted></_>
    <_>
      <rects>
        <_>
          20 9 2 3 -1.</_>
        <_>
          20 10 2 1 3.</_></rects>
      <tilted>0</tilted></_>
    <_>
      <rects>
        <_>
          20 15 3 2 -1.</_>
        <_>
          21 15 1 2 3.</_></rects>
      <tilted>0</tilted></_>
    <_>
      <rects>
        <_>
          20 16 4 5 -1.</_>
        <_>
          22 16 2 5 2.</_></rects>
      <tilted>0</tilted></_>
    <_>
      <rects>
        <_>
          20 17 4 2 -1.</_>
        <_>
          22 17 2 2 2.</_></rects>
      <tilted>0</tilted></_>
    <_>
      <rects>
        <_>
          20 18 3 1 -1.</_>
        <_>
          21 18 1 1 3.</_></rects>
      <tilted>0</tilted></_>
    <_>
      <rects>
        <_>
          20 19 1 4 -1.</_>
        <_>
          20 21 1 2 2.</_></rects>
      <tilted>0</tilted></_>
    <_>
      <rects>
        <_>
          20 23 4 1 -1.</_>
        <_>
          22 23 2 1 2.</_></rects>
      <tilted>0</tilted></_>
    <_>
      <rects>
        <_>
          21 0 3 17 -1.</_>
        <_>
          22 0 1 17 3.</_></rects>
      <tilted>0</tilted></_>
    <_>
      <rects>
        <_>
          21 6 1 16 -1.</_>
        <_>
          21 14 1 8 2.</_></rects>
      <tilted>0</tilted></_>
    <_>
      <rects>
        <_>
          21 8 3 8 -1.</_>
        <_>
          22 8 1 8 3.</_></rects>
      <tilted>0</tilted></_>
    <_>
      <rects>
        <_>
          21 10 3 8 -1.</_>
        <_>
          22 10 1 8 3.</_></rects>
      <tilted>0</tilted></_>
    <_>
      <rects>
        <_>
          21 11 3 4 -1.</_>
        <_>
          22 11 1 4 3.</_></rects>
      <tilted>0</tilted></_>
    <_>
      <rects>
        <_>
          21 11 2 8 -1.</_>
        <_>
          21 11 1 4 2.</_>
        <_>
          22 15 1 4 2.</_></rects>
      <tilted>0</tilted></_>
    <_>
      <rects>
        <_>
          21 12 2 6 -1.</_>
        <_>
          21 12 1 3 2.</_>
        <_>
          22 15 1 3 2.</_></rects>
      <tilted>0</tilted></_>
    <_>
      <rects>
        <_>
          21 13 2 6 -1.</_>
        <_>
          21 13 1 3 2.</_>
        <_>
          22 16 1 3 2.</_></rects>
      <tilted>0</tilted></_>
    <_>
      <rects>
        <_>
          21 19 2 1 -1.</_>
        <_>
          22 19 1 1 2.</_></rects>
      <tilted>0</tilted></_>
    <_>
      <rects>
        <_>
          22 8 2 7 -1.</_>
        <_>
          23 8 1 7 2.</_></rects>
      <tilted>0</tilted></_>
    <_>
      <rects>
        <_>
          22 9 1 3 -1.</_>
        <_>
          22 10 1 1 3.</_></rects>
      <tilted>0</tilted></_>
    <_>
      <rects>
        <_>
          22 10 2 6 -1.</_>
        <_>
          23 10 1 6 2.</_></rects>
      <tilted>0</tilted></_>
    <_>
      <rects>
        <_>
          22 18 2 1 -1.</_>
        <_>
          23 18 1 1 2.</_></rects>
      <tilted>0</tilted></_></features></cascade>
</opencv_storage>
