<?xml version="1.0"?>
<opencv_storage>
<stage2>
  <maxWeakCount>7</maxWeakCount>
  <stageThreshold>-6.8276876211166382e-01</stageThreshold>
  <weakClassifiers>
    <_>
      <internalNodes>
        0 -1 70695 8.4368679672479630e-03</internalNodes>
      <leafValues>
        -7.1653544902801514e-01 5.6164383888244629e-01</leafValues></_>
    <_>
      <internalNodes>
        0 -1 150769 -1.5572762116789818e-02</internalNodes>
      <leafValues>
        5.2660709619522095e-01 -5.8400845527648926e-01</leafValues></_>
    <_>
      <internalNodes>
        0 -1 70082 -5.5731716565787792e-03</internalNodes>
      <leafValues>
        5.4384917020797729e-01 -5.3792870044708252e-01</leafValues></_>
    <_>
      <internalNodes>
        0 -1 151761 1.1962897842749953e-03</internalNodes>
      <leafValues>
        -5.5550563335418701e-01 5.3703570365905762e-01</leafValues></_>
    <_>
      <internalNodes>
        0 -1 5873 -7.2435722686350346e-03</internalNodes>
      <leafValues>
        7.7848494052886963e-01 -4.2109897732734680e-01</leafValues></_>
    <_>
      <internalNodes>
        0 -1 128008 -1.1050060857087374e-03</internalNodes>
      <leafValues>
        -7.9956382513046265e-01 3.8382512331008911e-01</leafValues></_>
    <_>
      <internalNodes>
        0 -1 131111 6.4038783311843872e-02</internalNodes>
      <leafValues>
        -4.4391015172004700e-01 6.7445033788681030e-01</leafValues></_></weakClassifiers></stage2>
</opencv_storage>
