<?xml version="1.0"?>
<opencv_storage>
<stage6>
  <maxWeakCount>10</maxWeakCount>
  <stageThreshold>-7.3243498802185059e-01</stageThreshold>
  <weakClassifiers>
    <_>
      <internalNodes>
        0 -1 148236 2.2234917196328752e-05</internalNodes>
      <leafValues>
        -6.9849246740341187e-01 1.9402985274791718e-01</leafValues></_>
    <_>
      <internalNodes>
        0 -1 70267 -2.0423456589924172e-05</internalNodes>
      <leafValues>
        2.7243834733963013e-01 -6.6405892372131348e-01</leafValues></_>
    <_>
      <internalNodes>
        0 -1 114298 1.2092030374333262e-03</internalNodes>
      <leafValues>
        2.2691966593265533e-01 -8.3522844314575195e-01</leafValues></_>
    <_>
      <internalNodes>
        0 -1 25005 -2.3403686645906419e-04</internalNodes>
      <leafValues>
        3.9713314175605774e-01 -5.1601445674896240e-01</leafValues></_>
    <_>
      <internalNodes>
        0 -1 139819 2.2742725908756256e-02</internalNodes>
      <leafValues>
        -3.5083821415901184e-01 6.7512738704681396e-01</leafValues></_>
    <_>
      <internalNodes>
        0 -1 138515 2.1422776626423001e-05</internalNodes>
      <leafValues>
        -4.9795144796371460e-01 4.5002141594886780e-01</leafValues></_>
    <_>
      <internalNodes>
        0 -1 20947 -7.8859983477741480e-04</internalNodes>
      <leafValues>
        -6.7129230499267578e-01 2.9422098398208618e-01</leafValues></_>
    <_>
      <internalNodes>
        0 -1 133673 7.0145854260772467e-04</internalNodes>
      <leafValues>
        2.3375879228115082e-01 -8.2086968421936035e-01</leafValues></_>
    <_>
      <internalNodes>
        0 -1 48312 -1.2450967915356159e-03</internalNodes>
      <leafValues>
        -7.9418796300888062e-01 2.5135460495948792e-01</leafValues></_>
    <_>
      <internalNodes>
        0 -1 35427 -1.2837727554142475e-03</internalNodes>
      <leafValues>
        -8.5119593143463135e-01 1.8592140078544617e-01</leafValues></_></weakClassifiers></stage6>
</opencv_storage>
