<?xml version="1.0"?>
<opencv_storage>
<stage0>
  <maxWeakCount>6</maxWeakCount>
  <stageThreshold>-7.7829074859619141e-01</stageThreshold>
  <weakClassifiers>
    <_>
      <internalNodes>
        0 -1 471387 -5.2028913050889969e-02</internalNodes>
      <leafValues>
        8.0696517229080200e-01 -8.1507539749145508e-01</leafValues></_>
    <_>
      <internalNodes>
        0 -1 816196 -1.7835765611380339e-03</internalNodes>
      <leafValues>
        7.3206329345703125e-01 -5.0118315219879150e-01</leafValues></_>
    <_>
      <internalNodes>
        0 -1 176641 2.1485906094312668e-02</internalNodes>
      <leafValues>
        -6.0904604196548462e-01 6.2811976671218872e-01</leafValues></_>
    <_>
      <internalNodes>
        0 -1 855569 -2.6069150771945715e-03</internalNodes>
      <leafValues>
        8.7393146753311157e-01 -4.0049678087234497e-01</leafValues></_>
    <_>
      <internalNodes>
        0 -1 780360 2.0531065762042999e-02</internalNodes>
      <leafValues>
        -4.8918539285659790e-01 7.0202308893203735e-01</leafValues></_>
    <_>
      <internalNodes>
        0 -1 1068640 -1.8644563388079405e-03</internalNodes>
      <leafValues>
        8.4548753499984741e-01 -3.7906271219253540e-01</leafValues></_></weakClassifiers></stage0>
</opencv_storage>
