<?xml version="1.0"?>
<opencv_storage>
<stage3>
  <maxWeakCount>10</maxWeakCount>
  <stageThreshold>-1.2446144819259644e+00</stageThreshold>
  <weakClassifiers>
    <_>
      <internalNodes>
        0 -1 659609 -2.6422967202961445e-03</internalNodes>
      <leafValues>
        7.9940122365951538e-01 -4.0090090036392212e-01</leafValues></_>
    <_>
      <internalNodes>
        0 -1 825830 -4.5267785899341106e-03</internalNodes>
      <leafValues>
        7.5839036703109741e-01 -3.1836086511611938e-01</leafValues></_>
    <_>
      <internalNodes>
        0 -1 817594 7.8501079769921489e-06</internalNodes>
      <leafValues>
        -4.8780024051666260e-01 5.1051247119903564e-01</leafValues></_>
    <_>
      <internalNodes>
        0 -1 685112 -5.1022670231759548e-04</internalNodes>
      <leafValues>
        8.6959075927734375e-01 -2.5617608428001404e-01</leafValues></_>
    <_>
      <internalNodes>
        0 -1 1059731 -1.1838898062705994e-03</internalNodes>
      <leafValues>
        6.1658036708831787e-01 -3.3708941936492920e-01</leafValues></_>
    <_>
      <internalNodes>
        0 -1 495600 2.9589380137622356e-03</internalNodes>
      <leafValues>
        -3.6271598935127258e-01 5.9405052661895752e-01</leafValues></_>
    <_>
      <internalNodes>
        0 -1 805769 8.2947406917810440e-04</internalNodes>
      <leafValues>
        -3.2760345935821533e-01 6.9343721866607666e-01</leafValues></_>
    <_>
      <internalNodes>
        0 -1 807389 -8.4638222688226961e-06</internalNodes>
      <leafValues>
        5.1188033819198608e-01 -4.7046697139739990e-01</leafValues></_>
    <_>
      <internalNodes>
        0 -1 655668 -1.5908330678939819e-02</internalNodes>
      <leafValues>
        2.9929280281066895e-01 -8.4635913372039795e-01</leafValues></_>
    <_>
      <internalNodes>
        0 -1 276614 1.9306993111968040e-02</internalNodes>
      <leafValues>
        -5.5082517862319946e-01 4.1889402270317078e-01</leafValues></_></weakClassifiers></stage3>
</opencv_storage>
