<?xml version="1.0"?>
<opencv_storage>
<stage8>
  <maxWeakCount>19</maxWeakCount>
  <stageThreshold>-1.0652172565460205e+00</stageThreshold>
  <weakClassifiers>
    <_>
      <internalNodes>
        0 -1 501833 -2.5612846016883850e-02</internalNodes>
      <leafValues>
        4.0384614467620850e-01 -3.5526314377784729e-01</leafValues></_>
    <_>
      <internalNodes>
        0 -1 856828 -4.0304306894540787e-03</internalNodes>
      <leafValues>
        5.1236236095428467e-01 -2.4358376860618591e-01</leafValues></_>
    <_>
      <internalNodes>
        0 -1 207000 7.2355178417637944e-05</internalNodes>
      <leafValues>
        -4.6243584156036377e-01 3.0592581629753113e-01</leafValues></_>
    <_>
      <internalNodes>
        0 -1 894578 -1.4209139626473188e-03</internalNodes>
      <leafValues>
        4.8013356328010559e-01 -2.9500904679298401e-01</leafValues></_>
    <_>
      <internalNodes>
        0 -1 671691 -1.2111461721360683e-02</internalNodes>
      <leafValues>
        4.5990109443664551e-01 -2.5317218899726868e-01</leafValues></_>
    <_>
      <internalNodes>
        0 -1 727808 1.1086294398410246e-04</internalNodes>
      <leafValues>
        -2.9253181815147400e-01 4.1869288682937622e-01</leafValues></_>
    <_>
      <internalNodes>
        0 -1 549861 6.4618722535669804e-03</internalNodes>
      <leafValues>
        -2.7151778340339661e-01 4.3022483587265015e-01</leafValues></_>
    <_>
      <internalNodes>
        0 -1 883888 1.7223376198671758e-04</internalNodes>
      <leafValues>
        1.8518850207328796e-01 -5.7240158319473267e-01</leafValues></_>
    <_>
      <internalNodes>
        0 -1 739985 -2.0931321196258068e-03</internalNodes>
      <leafValues>
        5.2801775932312012e-01 -2.0421665906906128e-01</leafValues></_>
    <_>
      <internalNodes>
        0 -1 852068 -1.1402701493352652e-03</internalNodes>
      <leafValues>
        5.8252072334289551e-01 -2.4422746896743774e-01</leafValues></_>
    <_>
      <internalNodes>
        0 -1 605309 1.2662480585277081e-03</internalNodes>
      <leafValues>
        1.7094789445400238e-01 -8.2483369112014771e-01</leafValues></_>
    <_>
      <internalNodes>
        0 -1 1012075 4.0076570585370064e-03</internalNodes>
      <leafValues>
        -1.8978825211524963e-01 6.7330282926559448e-01</leafValues></_>
    <_>
      <internalNodes>
        0 -1 1045649 -1.5803200658410788e-03</internalNodes>
      <leafValues>
        3.2941323518753052e-01 -3.5730639100074768e-01</leafValues></_>
    <_>
      <internalNodes>
        0 -1 241962 8.6696743965148926e-03</internalNodes>
      <leafValues>
        -5.1335734128952026e-01 2.9343757033348083e-01</leafValues></_>
    <_>
      <internalNodes>
        0 -1 750954 4.7393981367349625e-04</internalNodes>
      <leafValues>
        -2.8748735785484314e-01 4.1189786791801453e-01</leafValues></_>
    <_>
      <internalNodes>
        0 -1 851991 2.4153382400982082e-04</internalNodes>
      <leafValues>
        1.7289248108863831e-01 -7.3926824331283569e-01</leafValues></_>
    <_>
      <internalNodes>
        0 -1 897466 -3.4919692552648485e-05</internalNodes>
      <leafValues>
        2.6988059282302856e-01 -4.1591486334800720e-01</leafValues></_>
    <_>
      <internalNodes>
        0 -1 816526 -2.3829312995076180e-03</internalNodes>
      <leafValues>
        -7.2066360712051392e-01 1.7780075967311859e-01</leafValues></_>
    <_>
      <internalNodes>
        0 -1 595202 1.9333673641085625e-02</internalNodes>
      <leafValues>
        -2.3833644390106201e-01 5.7776021957397461e-01</leafValues></_></weakClassifiers></stage8>
</opencv_storage>
