<?xml version="1.0"?>
<opencv_storage>
<stage1>
  <maxWeakCount>7</maxWeakCount>
  <stageThreshold>-1.7482255697250366e+00</stageThreshold>
  <weakClassifiers>
    <_>
      <internalNodes>
        0 -1 631093 -8.7594632059335709e-03</internalNodes>
      <leafValues>
        8.0219781398773193e-01 -5.5630820989608765e-01</leafValues></_>
    <_>
      <internalNodes>
        0 -1 873488 3.1726233661174774e-02</internalNodes>
      <leafValues>
        -4.7638291120529175e-01 7.4888557195663452e-01</leafValues></_>
    <_>
      <internalNodes>
        0 -1 331340 -1.2799816206097603e-02</internalNodes>
      <leafValues>
        8.5058540105819702e-01 -3.7524682283401489e-01</leafValues></_>
    <_>
      <internalNodes>
        0 -1 883933 2.1482293959707022e-03</internalNodes>
      <leafValues>
        -3.9119797945022583e-01 8.9837664365768433e-01</leafValues></_>
    <_>
      <internalNodes>
        0 -1 769009 -8.4638222688226961e-06</internalNodes>
      <leafValues>
        7.4192821979522705e-01 -4.1495874524116516e-01</leafValues></_>
    <_>
      <internalNodes>
        0 -1 629731 -7.4875270947813988e-03</internalNodes>
      <leafValues>
        8.4667605161666870e-01 -4.1433632373809814e-01</leafValues></_>
    <_>
      <internalNodes>
        0 -1 822057 -7.3808534070849419e-03</internalNodes>
      <leafValues>
        8.3072733879089355e-01 -3.4562683105468750e-01</leafValues></_></weakClassifiers></stage1>
</opencv_storage>
